   static const weight_t layer1_weights[8][1][3][3] = 
   { 
      { 
          { 
             {   0.233956,  -0.081375,   0.391406}, 
             {   0.387280,   0.207391,   0.130314}, 
             {   0.048198,   0.250918,   0.310802}
          }  
      }, 
      { 
          { 
             {   0.475462,   0.482719,   0.284976}, 
             {   0.032796,  -0.119398,  -0.236165}, 
             {  -0.966294,  -0.457771,  -0.029064}
          }  
      }, 
      { 
          { 
             {   0.108246,  -0.032340,   0.268191}, 
             {   0.245776,   0.303713,  -0.004381}, 
             {  -0.006527,   0.214595,  -0.043542}
          }  
      }, 
      { 
          { 
             {  -0.004697,   0.152253,  -0.267482}, 
             {   0.087856,   0.213971,  -0.013227}, 
             {  -0.271296,   0.098326,   0.342664}
          }  
      }, 
      { 
          { 
             {   0.264968,  -0.084631,   0.151437}, 
             {   0.230485,  -0.039567,   0.170082}, 
             {  -0.405435,   0.081890,   0.053163}
          }  
      }, 
      { 
          { 
             {  -0.205136,  -0.180686,   0.514579}, 
             {  -0.389197,   0.076467,   0.331599}, 
             {   0.048841,   0.254513,  -0.115217}
          }  
      }, 
      { 
          { 
             {  -0.181138,   0.312093,   0.025006}, 
             {  -0.227177,   0.080061,   0.113587}, 
             {   0.134075,   0.173603,   0.024625}
          }  
      }, 
      { 
          { 
             {  -0.234015,  -0.247863,   0.316184}, 
             {  -0.426684,   0.204137,   0.127937}, 
             {  -0.498529,   0.070666,   0.353579}
          }  
      }  
   }; 
      
   static const int layer1_input_images       = 1;  
   static const int layer1_output_images      = 8;  
   static const int layer1_weights_rows       = 3;  
   static const int layer1_weights_cols       = 3;  
      
   static const int layer1_num_weights        = 72;  
   static const int layer1_unit_size          = 9;  
   static const int layer1_unit_offset_factor = 9;  
   static const int later1_unit_count         = 8;  
      
   static const int layer1_weight_offset         = 0;  
   static const int layer2_weight_offset      = layer1_weight_offset + 72;  
      
      
   static const weight_t layer2_weights[3][8][3][3] = 
   { 
      { 
          { 
             {   0.122484,   0.279515,  -0.043274}, 
             {  -0.082722,   0.294165,  -0.281724}, 
             {   0.229308,  -0.186546,  -0.307283}
          }, 
          { 
             {  -0.208444,  -0.141733,  -0.071435}, 
             {  -0.217210,  -0.473692,  -0.590018}, 
             {  -0.001161,  -0.079576,  -0.138798}
          }, 
          { 
             {   0.045537,   0.093694,   0.064547}, 
             {   0.074942,   0.128611,  -0.164212}, 
             {   0.238613,   0.081620,   0.126729}
          }, 
          { 
             {   0.611774,   0.254146,   0.101093}, 
             {   0.238903,   0.544488,  -0.126440}, 
             {   0.212395,   0.196587,  -0.054616}
          }, 
          { 
             {   0.311642,  -0.160581,  -0.367513}, 
             {   0.330127,   0.189974,   0.260493}, 
             {   0.274891,   0.125508,   0.166567}
          }, 
          { 
             {   0.133487,   0.222755,   0.145324}, 
             {   0.119303,  -0.252452,  -0.141094}, 
             {   0.052567,  -0.061631,  -0.009160}
          }, 
          { 
             {  -0.020485,   0.075982,   0.206522}, 
             {   0.172977,  -0.246724,  -0.090412}, 
             {   0.197049,   0.182698,  -0.124751}
          }, 
          { 
             {  -0.212928,   0.262255,   0.451064}, 
             {  -0.645563,   0.264829,   0.169836}, 
             {  -0.430157,   0.183190,   0.580135}
          }  
      }, 
      { 
          { 
             {  -0.307724,  -0.017327,  -0.081303}, 
             {  -0.108197,   0.143103,   0.159265}, 
             {   0.137772,  -0.050392,  -0.059288}
          }, 
          { 
             {   0.263900,   0.374213,   0.551459}, 
             {   0.815954,   0.564844,   0.374242}, 
             {   0.875369,   0.600865,   0.713003}
          }, 
          { 
             {  -0.146832,   0.026287,   0.124009}, 
             {  -0.168950,  -0.023229,  -0.160642}, 
             {   0.171315,   0.351909,   0.256166}
          }, 
          { 
             {   0.302155,   0.008883,   0.042276}, 
             {   0.340418,   0.368813,  -0.160467}, 
             {   0.300509,   0.322018,   0.401323}
          }, 
          { 
             {   0.000290,   0.271844,   0.006967}, 
             {   0.221230,   0.038344,   0.043283}, 
             {   0.158079,  -0.027240,  -0.115301}
          }, 
          { 
             {  -0.469829,   0.091960,  -0.105242}, 
             {  -0.431036,   0.068230,  -0.056700}, 
             {  -0.268514,  -0.020728,   0.180982}
          }, 
          { 
             {  -0.294122,  -0.284804,   0.077336}, 
             {  -0.016849,   0.024951,   0.158167}, 
             {  -0.090748,   0.299626,   0.159816}
          }, 
          { 
             {  -0.558315,  -0.143093,  -0.338024}, 
             {  -0.071173,  -0.388041,  -0.014166}, 
             {   0.052300,  -0.274821,  -0.270973}
          }  
      }, 
      { 
          { 
             {  -0.328621,   0.039348,  -0.023327}, 
             {   0.026362,   0.010237,   0.074662}, 
             {  -0.240621,   0.166544,  -0.208380}
          }, 
          { 
             {   0.000615,  -0.942865,  -0.632276}, 
             {  -1.061200,  -0.975187,  -0.032335}, 
             {  -0.401678,  -0.254093,   0.066226}
          }, 
          { 
             {  -0.310676,   0.061109,   0.353905}, 
             {  -0.023747,  -0.119703,   0.202336}, 
             {  -0.055735,   0.132262,  -0.019773}
          }, 
          { 
             {  -0.126347,   0.152952,  -0.299025}, 
             {   0.178391,  -0.183922,   0.135397}, 
             {  -0.088760,   0.094564,  -0.169868}
          }, 
          { 
             {  -0.107931,   0.028751,  -0.236810}, 
             {  -0.309718,  -0.214887,  -0.235882}, 
             {  -0.512956,  -0.065778,  -0.110205}
          }, 
          { 
             {   0.139732,   0.565344,   0.653514}, 
             {   0.671733,   0.246351,   0.100075}, 
             {   0.595987,   0.310830,   0.012864}
          }, 
          { 
             {   0.171100,   0.364102,   0.309157}, 
             {   0.363834,   0.232563,   0.088732}, 
             {   0.241895,   0.156000,  -0.183453}
          }, 
          { 
             {   0.202748,   0.144732,   0.485698}, 
             {   0.159565,   0.538683,   0.651999}, 
             {  -0.020945,   0.350712,   0.445570}
          }  
      }  
   }; 
      
   static const int layer2_input_images       = 8;  
   static const int layer2_output_images      = 3;  
   static const int layer2_weights_rows       = 3;  
   static const int layer2_weights_cols       = 3;  
      
   static const int layer2_num_weights        = 216;  
   static const int layer2_unit_size          = 9;  
   static const int layer2_unit_offset_factor = 9;  
   static const int later2_unit_count         = 24;  
      
   static const int layer3_weight_offset      = layer2_weight_offset + 216;  
      
      
   static const weight_t layer3_weights[10][2352] = 
   { 
      {   -0.042718,   0.175473,  -0.003677,   0.158275,   0.117082,  -0.001866,   0.073237,  -0.154354,  -0.156905,  -0.312565,  
          -0.251759,  -0.276684,  -0.276084,  -0.195786,  -0.267582,  -0.321611,  -0.015986,  -0.113575,  -0.060564,  -0.056479,  
          -0.128191,  -0.151365,  -0.101465,  -0.031463,  -0.050658,   0.028714,   0.041720,   0.025066,  -0.015653,   0.101232,  
          -0.041265,  -0.032494,  -0.063612,  -0.279566,   0.027282,   0.045234,  -0.127747,  -0.083445,  -0.259019,  -0.098154,  
          -0.189748,  -0.030555,   0.071270,  -0.020050,  -0.087118,  -0.067788,  -0.059031,  -0.095771,  -0.193441,  -0.066395,  
          -0.034745,   0.084042,   0.126095,   0.142717,   0.070358,   0.076683,  -0.053672,   0.074190,   0.134464,  -0.138724,  
          -0.045306,  -0.138479,  -0.147448,  -0.088239,  -0.078209,  -0.100353,  -0.053010,  -0.068403,  -0.085086,  -0.097942,  
          -0.007774,  -0.082387,  -0.148091,  -0.131686,  -0.085089,   0.020913,  -0.080059,  -0.073010,  -0.149851,   0.057300,  
          -0.019788,  -0.158077,  -0.072886,  -0.066556,  -0.005919,  -0.001018,  -0.182235,  -0.129995,  -0.242947,  -0.186555,  
          -0.100235,  -0.066902,   0.048373,  -0.017354,   0.005959,  -0.025152,   0.005286,   0.041857,   0.101497,   0.053866,  
          -0.094842,  -0.115020,  -0.034839,   0.033915,   0.025482,   0.045225,  -0.115047,  -0.072573,   0.043345,  -0.071754,  
          -0.169906,  -0.175838,  -0.029325,  -0.015168,  -0.214885,  -0.126675,   0.092225,  -0.100540,  -0.157717,   0.006291,  
          -0.086470,   0.016873,   0.026785,   0.145294,   0.026047,   0.083330,   0.022910,  -0.020646,   0.013777,  -0.064461,  
           0.055091,   0.079085,  -0.015630,  -0.058036,   0.105771,   0.107057,  -0.099801,  -0.220295,  -0.247173,  -0.301154,  
          -0.033889,  -0.114235,  -0.242979,  -0.276230,   0.018920,  -0.222148,  -0.112089,   0.012840,  -0.125626,  -0.054412,  
           0.019084,  -0.039451,  -0.037135,  -0.019242,  -0.116059,   0.075283,  -0.035700,  -0.084572,  -0.011616,  -0.034629,  
          -0.014763,   0.006174,   0.108245,   0.069923,  -0.016158,  -0.102559,  -0.315943,  -0.312759,   0.063163,   0.229976,  
          -0.125401,   0.043636,  -0.019801,   0.028446,   0.041043,  -0.019222,  -0.071740,   0.014803,   0.121415,   0.016073,  
          -0.072652,   0.058768,   0.092950,   0.010490,  -0.140731,  -0.015379,   0.017214,   0.076401,  -0.039242,  -0.050120,  
          -0.018084,   0.086325,   0.070144,  -0.013486,  -0.047079,  -0.105447,   0.162513,   0.097205,  -0.074642,  -0.103298,  
          -0.023633,   0.131213,  -0.074105,  -0.035686,   0.007073,   0.052639,   0.055714,  -0.038225,   0.109545,   0.054916,  
           0.124803,   0.068621,   0.143871,   0.065287,   0.188579,   0.024251,   0.041451,   0.046219,   0.056056,   0.086448,  
           0.135472,  -0.015182,  -0.119865,  -0.067993,   0.184515,   0.223350,  -0.130807,  -0.035959,   0.017246,   0.024729,  
          -0.048729,  -0.013690,   0.059519,   0.080210,   0.108258,  -0.040554,  -0.001061,   0.022848,   0.067511,   0.045201,  
           0.186675,   0.095270,   0.098604,   0.112003,   0.118252,   0.068634,  -0.019568,   0.026019,  -0.010903,  -0.003308,  
          -0.016212,   0.002277,   0.169872,   0.142090,  -0.055933,   0.063343,   0.083524,   0.021193,  -0.135525,  -0.027122,  
           0.043866,   0.078655,   0.038114,   0.003976,  -0.002422,   0.040945,   0.083067,   0.090998,   0.069844,   0.063650,  
           0.157057,   0.126024,   0.097582,   0.088127,   0.039721,  -0.009548,   0.076291,  -0.027683,  -0.147021,  -0.195779,  
           0.235641,   0.011330,  -0.028103,  -0.050374,   0.097479,  -0.031016,   0.046936,  -0.059406,   0.084916,   0.057879,  
           0.032649,  -0.066735,   0.006829,   0.049489,   0.097322,   0.166421,   0.115856,   0.242700,   0.121323,   0.132180,  
           0.062316,   0.168127,   0.144106,   0.075808,  -0.070602,  -0.098216,  -0.310895,  -0.426054,   0.050024,   0.171959,  
          -0.051455,  -0.112386,   0.007575,   0.022671,   0.100989,   0.012843,   0.017035,   0.038501,  -0.073092,   0.023038,  
           0.073550,   0.120640,  -0.062256,   0.038144,   0.127868,   0.138357,   0.125489,   0.066327,   0.149613,   0.170516,  
           0.130475,   0.199188,  -0.029264,  -0.115486,  -0.093159,  -0.414023,   0.151511,  -0.075376,  -0.156644,  -0.012368,  
          -0.006752,  -0.044556,  -0.004054,   0.102940,   0.072803,   0.004464,   0.084368,   0.049178,  -0.115268,  -0.066010,  
          -0.122030,  -0.059713,   0.019747,   0.012416,   0.036575,   0.117092,   0.130150,   0.032017,   0.067445,   0.066032,  
           0.064304,  -0.041510,  -0.186263,  -0.344258,   0.181823,   0.046108,   0.114551,  -0.070776,   0.198734,   0.081990,  
           0.037665,   0.098159,   0.069474,   0.029156,   0.080073,   0.157497,   0.011912,   0.006997,  -0.201935,  -0.186369,  
          -0.049536,  -0.041506,  -0.035857,   0.046541,   0.016114,  -0.000697,   0.035747,   0.050823,   0.042141,   0.145563,  
          -0.190508,  -0.252148,   0.009046,  -0.002745,  -0.072597,  -0.021283,   0.115637,   0.044915,   0.071399,   0.099884,  
           0.024192,   0.093446,   0.027818,   0.072620,   0.013611,  -0.079856,  -0.230378,  -0.048157,  -0.162898,  -0.146922,  
          -0.055065,   0.037114,   0.042773,  -0.013421,   0.111646,   0.080414,   0.114400,  -0.004586,  -0.030376,  -0.143972,  
           0.032877,  -0.083876,  -0.058748,   0.062635,   0.059249,   0.119637,   0.022625,   0.093152,   0.076769,   0.109606,  
          -0.007020,   0.019983,  -0.107325,  -0.194858,  -0.298564,  -0.290374,  -0.023679,  -0.147153,  -0.113512,   0.117010,  
           0.006028,   0.079146,   0.011818,   0.055001,   0.140876,   0.067233,   0.000776,  -0.233063,  -0.014933,  -0.107868,  
           0.016638,   0.047667,   0.105083,  -0.015650,  -0.002291,   0.064750,   0.147828,   0.148731,   0.039140,  -0.013380,  
          -0.096115,  -0.171604,  -0.104211,  -0.246824,  -0.017196,  -0.120597,  -0.084636,   0.099070,  -0.042732,   0.045156,  
          -0.016388,  -0.046579,   0.002295,   0.052282,  -0.011739,  -0.212326,   0.005944,   0.029035,   0.062165,   0.038838,  
           0.092728,   0.051750,   0.141572,   0.043758,   0.091520,   0.224074,   0.013111,   0.041521,  -0.026936,  -0.185474,  
          -0.113434,  -0.110790,  -0.149466,  -0.036102,  -0.056997,  -0.099232,  -0.142913,   0.000127,   0.016411,  -0.043692,  
           0.135988,   0.087730,  -0.114111,  -0.173104,   0.034312,  -0.046230,  -0.046653,   0.073955,   0.158876,   0.076487,  
           0.051161,   0.044165,   0.154456,   0.093220,   0.136862,   0.023924,  -0.019370,  -0.038728,  -0.099443,  -0.013659,  
          -0.038596,  -0.019289,  -0.037701,  -0.015743,  -0.074844,   0.003971,  -0.002413,  -0.032495,   0.034254,   0.042161,  
          -0.099092,  -0.224295,   0.162674,  -0.015585,   0.035632,   0.100981,   0.023550,   0.052272,   0.012482,   0.088003,  
           0.099950,   0.143368,   0.087532,   0.068262,  -0.083123,   0.001628,   0.007249,   0.012403,  -0.037505,  -0.176862,  
          -0.118703,   0.007706,  -0.065163,  -0.144095,  -0.034109,  -0.008093,  -0.079432,  -0.111315,  -0.019460,  -0.257363,  
           0.051728,  -0.050334,   0.119821,   0.057489,   0.006224,   0.125091,   0.049099,  -0.050951,  -0.028792,  -0.092679,  
          -0.009717,  -0.009561,   0.038438,  -0.061138,  -0.015040,  -0.160739,  -0.104122,  -0.135693,  -0.088086,  -0.105295,  
          -0.092343,  -0.088080,  -0.147753,  -0.049021,  -0.259597,  -0.241638,  -0.267658,  -0.367682,  -0.092528,  -0.009298,  
           0.070380,   0.012409,   0.054830,   0.120497,   0.016984,   0.073338,   0.146883,  -0.039580,   0.003788,   0.012030,  
          -0.056870,  -0.021882,  -0.032383,  -0.014635,  -0.110505,  -0.156663,  -0.196729,  -0.108404,  -0.128899,  -0.218211,  
          -0.081109,  -0.008793,  -0.202888,  -0.297052,  -0.139917,  -0.211622,   0.045624,  -0.153787,  -0.191021,   0.000162,  
           0.073407,   0.026888,   0.080119,   0.003021,  -0.024165,   0.024656,   0.072733,  -0.035227,   0.005065,  -0.021267,  
          -0.088926,   0.067398,   0.009958,  -0.036989,   0.002190,  -0.163288,  -0.136470,  -0.109491,  -0.059184,  -0.106345,  
          -0.013126,  -0.185920,  -0.198165,  -0.241996,  -0.219410,  -0.134147,   0.039483,  -0.017581,  -0.074836,  -0.112423,  
          -0.021181,   0.012867,  -0.016093,  -0.069503,   0.003801,   0.004538,  -0.073991,  -0.030934,  -0.021287,  -0.004938,  
          -0.117356,  -0.004015,   0.007377,  -0.064284,  -0.099503,  -0.121357,  -0.178596,  -0.158360,  -0.186598,  -0.190102,  
          -0.290823,  -0.120056,  -0.214318,  -0.139536,   0.030311,   0.016857,   0.007800,   0.072812,   0.025440,   0.107980,  
          -0.081965,  -0.046110,  -0.074355,  -0.183897,  -0.030695,   0.065043,  -0.114168,  -0.100212,  -0.041872,  -0.128469,  
          -0.026739,  -0.167209,  -0.337666,  -0.346933,  -0.460565,  -0.351423,  -0.030210,  -0.212028,  -0.329176,  -0.141441,  
          -0.008010,  -0.161777,  -0.356114,  -0.142872,  -0.207186,  -0.057418,  -0.149916,  -0.167082,   0.112216,   0.096034,  
          -0.243274,  -0.081341,  -0.068341,  -0.179807,  -0.119694,  -0.250799,  -0.259360,  -0.343205,  -0.340733,  -0.260587,  
          -0.237849,  -0.564212,  -0.465902,  -0.449622,   0.011885,  -0.088889,  -0.319282,  -0.101425,  -0.116192,  -0.048332,  
           0.060955,   0.124475,  -0.087322,  -0.161855,  -0.116569,  -0.233713,  -0.127587,  -0.365946,  -0.088684,   0.190959,  
          -0.022708,  -0.132437,  -0.288157,  -0.389274,  -0.192568,  -0.310664,  -0.442723,  -0.172766,  -0.120596,  -0.373606,  
          -0.360288,  -0.154497,  -0.064300,  -0.044784,  -0.100717,  -0.040985,  -0.059615,  -0.035411,  -0.033489,  -0.314545,  
          -0.316265,  -0.253370,  -0.064311,  -0.086477,  -0.137695,  -0.217361,  -0.369198,  -0.441087,  -0.191277,  -0.261204,  
          -0.018284,  -0.188907,  -0.339315,  -0.270930,  -0.305737,  -0.090282,  -0.273114,  -0.162400,  -0.110521,  -0.195937,  
          -0.126752,  -0.026783,  -0.015525,   0.003816,   0.005358,   0.054351,   0.127157,   0.135764,  -0.021235,  -0.060115,  -0.049536,  -0.123031,  -0.228029,  -0.362287,  
          -0.222177,  -0.238934,  -0.126221,  -0.351630,  -0.341550,  -0.143372,  -0.141829,  -0.114294,   0.032185,  -0.035296,  
          -0.167705,  -0.149535,  -0.166633,  -0.046270,   0.004092,  -0.031446,   0.022688,  -0.030262,   0.013192,   0.134083,  
           0.002652,  -0.128579,  -0.310794,  -0.160339,  -0.042259,  -0.000103,  -0.048632,  -0.076427,  -0.104157,  -0.079079,  
          -0.142419,   0.036618,  -0.072258,  -0.132347,  -0.026555,  -0.069094,  -0.097151,  -0.133196,  -0.112279,  -0.050882,  
           0.063664,  -0.036530,   0.139108,  -0.017220,   0.010172,   0.023565,  -0.024666,   0.076454,  -0.030769,  -0.110740,  
          -0.263243,  -0.162898,  -0.143894,   0.032432,   0.085651,   0.152779,   0.164525,   0.103899,   0.063833,   0.063355,  
          -0.089777,  -0.000287,  -0.005298,   0.107650,   0.053715,  -0.031430,  -0.002753,  -0.021975,   0.136579,   0.073614,  
          -0.134021,  -0.164558,   0.137111,   0.107790,   0.000336,   0.180024,   0.122491,  -0.053243,  -0.105699,   0.041302,  
           0.014233,  -0.047206,   0.041088,   0.147089,   0.132025,   0.023332,  -0.091808,  -0.114076,  -0.125570,  -0.045017,  
           0.042088,   0.156361,   0.104190,   0.009642,   0.057662,   0.038987,   0.087473,  -0.048884,   0.032117,  -0.027860,  
          -0.140873,  -0.138477,  -0.014642,  -0.156019,  -0.020342,   0.010352,   0.146920,   0.034024,   0.149448,  -0.083375,  
           0.016395,   0.017668,  -0.054308,  -0.004921,  -0.020099,  -0.093879,   0.044737,   0.007585,   0.047174,   0.025986,  
           0.016797,   0.057023,  -0.053869,   0.030618,  -0.023739,  -0.211884,  -0.244757,  -0.115385,  -0.217031,  -0.200870,  
          -0.071930,  -0.216951,  -0.061604,  -0.118177,   0.070358,   0.075389,  -0.063336,   0.035849,  -0.024996,  -0.118622,  
          -0.074188,  -0.051905,  -0.039287,  -0.076356,  -0.068725,   0.017559,  -0.019830,  -0.083070,  -0.069652,   0.021637,  
          -0.086708,   0.071931,  -0.042208,   0.081636,   0.090255,  -0.291557,  -0.616638,  -0.428717,   0.205545,   0.080987,  
          -0.143998,  -0.158282,  -0.190141,  -0.097513,  -0.142793,  -0.078383,  -0.134922,  -0.139123,  -0.104691,  -0.187029,  
          -0.072051,  -0.087538,  -0.122384,  -0.007368,   0.070888,  -0.081562,  -0.037926,  -0.127359,   0.050160,   0.135482,  
          -0.023350,   0.095649,   0.080585,  -0.172017,  -0.380830,  -0.118298,   0.214876,   0.009548,  -0.090463,   0.021798,  
          -0.070868,  -0.031463,   0.015731,   0.040783,  -0.006389,  -0.092711,  -0.067835,  -0.176967,  -0.015932,  -0.014075,  
           0.058983,   0.106881,   0.036374,   0.039323,   0.143836,   0.037043,  -0.013353,  -0.090604,  -0.016862,   0.350007,  
           0.247568,  -0.175821,  -0.162815,  -0.159542,   0.288090,   0.245637,   0.067628,  -0.137142,  -0.118973,  -0.004303,  
          -0.004606,   0.143780,  -0.031079,  -0.019093,   0.036849,  -0.053947,  -0.107729,   0.089057,  -0.091254,  -0.027632,  
           0.023226,   0.089099,   0.044529,   0.089312,   0.007282,  -0.146619,   0.066506,   0.053411,  -0.001597,  -0.106565,  
          -0.026048,  -0.213476,   0.269549,   0.223508,  -0.004085,  -0.120820,  -0.095221,  -0.106014,  -0.017590,   0.036666,  
          -0.058409,  -0.024362,  -0.064863,  -0.062277,  -0.044377,  -0.042968,  -0.063075,  -0.060293,   0.008158,   0.012793,  
          -0.044017,  -0.108801,  -0.021928,  -0.117637,  -0.090823,   0.015120,  -0.086293,  -0.090619,  -0.176604,  -0.459286,  
           0.163165,   0.205730,   0.072889,  -0.019926,   0.070055,  -0.065734,  -0.013511,  -0.100588,   0.015305,   0.076821,  
           0.176970,   0.075624,  -0.016128,  -0.056561,  -0.238919,  -0.144013,  -0.047609,   0.015566,  -0.082152,  -0.138070,  
          -0.098924,   0.010656,  -0.015797,   0.032580,  -0.118364,  -0.094637,  -0.196614,  -0.501829,   0.233879,   0.109790,  
          -0.014604,   0.029525,   0.127722,  -0.050760,   0.003006,  -0.034200,  -0.051922,   0.031151,  -0.016424,   0.129393,  
          -0.118901,  -0.220007,  -0.116511,  -0.053333,  -0.047179,   0.050931,  -0.029529,  -0.108520,  -0.102829,  -0.074239,  
           0.038777,  -0.016319,  -0.023377,  -0.152072,  -0.081114,  -0.646413,   0.205026,   0.113752,   0.027913,  -0.006450,  
           0.097354,  -0.102654,   0.051715,   0.028242,   0.076407,   0.083204,   0.071867,  -0.083693,  -0.080592,  -0.225619,  
          -0.154561,  -0.233675,  -0.004420,  -0.113485,  -0.036868,   0.010315,  -0.069283,  -0.088419,  -0.126125,  -0.033289,  
          -0.097753,  -0.210065,  -0.156950,  -0.566227,   0.195993,  -0.126384,  -0.033351,  -0.098748,   0.019403,   0.031646,  
          -0.140218,  -0.005649,  -0.083456,   0.079461,   0.005024,  -0.031323,  -0.075223,  -0.227040,  -0.270636,  -0.259808,  
          -0.139042,  -0.121880,  -0.025552,   0.014791,   0.002584,  -0.078764,  -0.184064,  -0.057824,  -0.057783,   0.055366,  
          -0.231722,  -0.446399,  -0.057095,  -0.141759,  -0.011295,  -0.007816,  -0.000483,   0.050690,  -0.131392,  -0.100210,  
          -0.052201,   0.003673,   0.103749,  -0.009430,  -0.150514,  -0.296868,  -0.336137,  -0.239708,  -0.360597,  -0.243146,  
          -0.016992,  -0.028439,  -0.088431,  -0.230153,  -0.110866,   0.023053,   0.173765,  -0.018478,  -0.263168,  -0.166469,  
          -0.091009,  -0.016211,  -0.017421,   0.017113,  -0.088301,   0.044651,  -0.029406,  -0.032662,  -0.061875,  -0.051108,  
          -0.044038,  -0.093303,  -0.162613,  -0.250526,  -0.098992,  -0.208536,  -0.063682,  -0.180283,  -0.238364,  -0.122528,  
          -0.012508,  -0.092013,   0.089315,   0.010844,   0.010722,  -0.100577,  -0.085941,  -0.193483,  -0.047398,  -0.057061,  
          -0.073157,  -0.106297,   0.048765,   0.016791,  -0.000356,   0.022876,   0.023788,   0.015117,   0.025894,   0.006040,  
          -0.276937,  -0.248549,  -0.228608,  -0.243769,  -0.118714,  -0.052344,  -0.179220,  -0.145393,   0.013376,   0.069036,  
          -0.005197,  -0.054366,  -0.047021,  -0.181320,   0.035901,  -0.370370,  -0.084704,  -0.149128,   0.123158,  -0.000671,  
           0.142935,  -0.004100,   0.080851,   0.044314,  -0.021799,  -0.012984,   0.000796,  -0.077490,  -0.127097,  -0.202822,  
          -0.116078,  -0.118428,   0.019535,   0.044322,   0.009038,  -0.029814,   0.010221,  -0.016598,  -0.050569,  -0.079096,  
          -0.004210,  -0.071745,  -0.184970,  -0.414925,   0.073863,  -0.065526,   0.075357,  -0.152697,   0.045603,  -0.049042,  
          -0.061736,   0.005883,  -0.029436,   0.096417,   0.067308,   0.102162,  -0.036981,  -0.112625,  -0.056885,  -0.022061,  
          -0.009356,   0.094386,   0.041742,   0.079897,  -0.106716,  -0.048066,   0.016003,  -0.073874,   0.011105,  -0.059170,  
          -0.258667,  -0.255028,  -0.021666,  -0.069261,  -0.010713,  -0.092383,  -0.017384,  -0.113300,  -0.075095,  -0.079420,  
          -0.033556,   0.061644,   0.083438,   0.049897,  -0.032433,   0.025681,  -0.018177,   0.142408,   0.099374,   0.122049,  
          -0.006516,  -0.071709,  -0.068952,  -0.023857,   0.052233,  -0.014211,  -0.035604,  -0.052986,  -0.103415,  -0.263874,  
           0.101275,   0.066077,  -0.044149,  -0.028799,  -0.000910,  -0.117826,   0.057843,  -0.030412,  -0.118779,  -0.048477,  
           0.026807,   0.045389,   0.005577,   0.032787,  -0.016532,   0.004551,   0.117374,  -0.031826,   0.022130,  -0.007945,  
          -0.089222,   0.074051,   0.015091,  -0.011217,  -0.166552,  -0.074465,  -0.083286,  -0.481156,   0.053819,  -0.162497,  
           0.047523,   0.020272,  -0.040245,   0.026510,  -0.066622,  -0.149374,  -0.076904,  -0.128489,  -0.002615,  -0.066631,  
          -0.029643,   0.139716,   0.069509,   0.056380,   0.016867,  -0.108610,  -0.057886,   0.040584,  -0.082274,  -0.081873,  
          -0.076416,  -0.074947,  -0.172412,   0.014697,   0.009310,  -0.298159,   0.188597,  -0.075015,  -0.128372,   0.068348,  
          -0.133787,  -0.085199,   0.010856,  -0.062533,  -0.014392,  -0.004871,  -0.107624,  -0.101007,   0.006173,   0.052545,  
           0.008920,  -0.027013,   0.067128,   0.027413,   0.020448,  -0.128602,  -0.074718,   0.070551,  -0.071871,   0.019434,  
          -0.013642,  -0.119182,  -0.372044,  -0.013320,   0.021958,  -0.237712,  -0.066766,  -0.114573,  -0.135205,  -0.097148,  
          -0.100803,   0.013799,   0.004215,   0.025594,  -0.039442,  -0.085672,   0.032472,   0.011193,   0.091889,   0.059713,  
          -0.018838,   0.169566,  -0.062739,   0.063282,  -0.002173,   0.081080,   0.022580,   0.247053,  -0.008342,  -0.204613,  
          -0.376584,   0.070740,  -0.047308,  -0.210621,  -0.025499,  -0.077254,  -0.029807,  -0.000594,  -0.117507,   0.066987,  
          -0.019811,   0.056889,   0.072227,   0.084352,   0.010799,  -0.006887,   0.028275,   0.088651,   0.230104,   0.174268,  
           0.083465,   0.153622,   0.037837,  -0.062143,   0.111702,   0.200963,   0.059056,  -0.301210,  -0.311030,  -0.087618,  
          -0.094807,  -0.171251,  -0.175671,  -0.220766,  -0.213805,  -0.168858,  -0.154081,  -0.185302,  -0.028560,  -0.063169,  
          -0.085865,  -0.011530,  -0.006314,   0.010958,  -0.001489,   0.211803,   0.262347,   0.245690,   0.180878,   0.138364,  
          -0.195358,  -0.064948,  -0.065467,  -0.048104,   0.009197,  -0.426187,  -0.364944,  -0.129180,  -0.133007,  -0.072527,  
          -0.031086,   0.094576,   0.074189,  -0.224065,  -0.039595,  -0.169649,  -0.084960,  -0.064235,  -0.077268,   0.072800,  
          -0.106615,  -0.044203,   0.003282,   0.087044,   0.320707,   0.179449,  -0.041669,  -0.116565,  -0.331050,  -0.408073,  
          -0.144305,   0.030789,  -0.171015,  -0.220666,  -0.269946,  -0.053102,  -0.113318,  -0.011399,  -0.051858,  -0.099952,  
          -0.262772,  -0.318513,  -0.132178,  -0.178979,  -0.119654,  -0.170803,  -0.153414,  -0.108520,  -0.056041,  -0.131203,  
           0.130452,   0.135914,  -0.168009,  -0.115423,  -0.249763,  -0.347741,  -0.492497,  -0.387877,  -0.176474,  -0.142733,  
          -0.102934,  -0.137460,  -0.045854,   0.071415,   0.037484,   0.145571,   0.107314,   0.246630,   0.121118,   0.002819,   0.074675,  -0.098357,  -0.311589,  -0.191452,  
          -0.068457,  -0.097706,  -0.130214,  -0.422101,  -0.140461,  -0.114876,  -0.044911,  -0.082006,  -0.445782,  -0.337011,  
          -0.142511,  -0.117437,   0.056327,  -0.095303,  -0.080423,  -0.119822,  -0.002856,  -0.057672,  -0.015472,   0.169812,  
           0.243442,   0.077113,  -0.105575,  -0.096031,  -0.084501,  -0.028583,  -0.162596,  -0.210175,  -0.296806,  -0.365856,  
          -0.159597,  -0.343929,  -0.223645,  -0.071990,  -0.057557,  -0.126343,  -0.117417,  -0.065993,  -0.111747,  -0.031607,  
           0.043034,   0.044288,   0.035611,   0.043296,   0.065261,  -0.017245,  -0.100195,   0.212354,  -0.000624,  -0.098383,  
          -0.315836,  -0.279743,   0.001242,  -0.047337,  -0.038996,  -0.109376,  -0.224110,  -0.031584,  -0.141285,  -0.152216,  
          -0.093563,  -0.068632,  -0.177326,  -0.194640,  -0.216432,  -0.136962,   0.075765,  -0.005872,   0.048966,   0.051021,  
           0.073691,  -0.082896,  -0.144099,  -0.202857,  -0.061087,   0.133844,   0.034893,  -0.304012,  -0.398209,  -0.128060,  
          -0.111684,   0.011548,   0.050786,  -0.068873,  -0.088988,  -0.119336,  -0.132476,  -0.138688,  -0.045162,  -0.041976,  
          -0.017855,  -0.136757,  -0.220527,  -0.147329,  -0.042145,   0.028682,   0.085243,  -0.041554,  -0.234678,  -0.237524,  
          -0.237269,   0.021429,  -0.102267,   0.035215,  -0.218296,  -0.295437,  -0.111369,  -0.061707,  -0.103779,  -0.077575,  
           0.043767,  -0.043394,  -0.110347,  -0.150873,  -0.099373,   0.004349,  -0.137708,  -0.014272,  -0.048869,  -0.054438,  
          -0.116959,  -0.227401,  -0.085310,  -0.004239,   0.007309,  -0.160814,  -0.264032,  -0.256547,  -0.310405,  -0.262678,  
          -0.077431,  -0.039182,  -0.298719,  -0.118406,   0.076246,   0.006646,  -0.110881,  -0.047569,  -0.022552,  -0.049536,  
          -0.103094,  -0.070247,   0.032003,   0.013438,  -0.087521,  -0.041339,  -0.125294,  -0.125564,  -0.090132,  -0.138171,  
          -0.142145,  -0.057483,  -0.122370,  -0.143249,  -0.122625,  -0.064275,   0.089179,   0.006407,   0.225458,  -0.181096,  
          -0.398256,  -0.094127,   0.101634,   0.067746,  -0.049716,   0.018644,   0.068789,  -0.045081,  -0.091094,   0.009285,  
           0.051218,   0.004873,  -0.119489,  -0.124639,   0.017849,  -0.084472,  -0.094303,  -0.040070,  -0.134532,  -0.031827,  
           0.005553,  -0.225249,  -0.155373,  -0.111853,  -0.214621,  -0.201637,   0.251391,   0.013483,  -0.264109,  -0.157092,  
          -0.035886,   0.019545,  -0.033687,  -0.007263,   0.014568,   0.012359,   0.078948,  -0.015880,  -0.042584,  -0.089223,  
          -0.078020,  -0.056374,  -0.141975,  -0.030094,  -0.131428,  -0.096161,   0.016517,  -0.128193,  -0.112112,  -0.374003,  
          -0.183114,  -0.222240,  -0.263724,  -0.090547,   0.262049,   0.239991,  -0.240236,  -0.036476,   0.012165,   0.070305,  
          -0.056744,   0.028404,   0.062067,   0.070200,  -0.025699,  -0.066972,  -0.102780,   0.069927,  -0.041286,   0.047296,  
           0.054372,   0.024289,   0.026776,   0.006020,  -0.126951,  -0.241805,  -0.173866,  -0.261930,  -0.178727,  -0.177990,  
          -0.113507,  -0.306992,   0.183837,   0.135140,  -0.148716,  -0.039910,   0.115919,   0.088853,  -0.094749,  -0.025132,  
          -0.008005,   0.013916,  -0.118159,  -0.027709,  -0.035816,   0.010237,  -0.103833,  -0.094781,   0.007987,  -0.170611,  
           0.012081,  -0.121980,  -0.085950,  -0.049722,   0.003795,  -0.059124,  -0.059254,  -0.007009,  -0.175649,  -0.266289,  
           0.299058,   0.162060,  -0.197849,  -0.111502,   0.098683,  -0.036833,   0.044937,  -0.115508,   0.012240,  -0.064972,  
          -0.009490,   0.044373,  -0.062499,  -0.018049,   0.015509,   0.001753,  -0.004056,  -0.061401,  -0.029589,   0.062853,  
           0.020205,   0.096033,   0.102597,   0.055542,   0.138488,   0.057669,  -0.273673,  -0.096592,   0.278061,   0.155098,  
          -0.110787,  -0.124205,   0.090356,   0.024244,   0.009690,  -0.016843,   0.010793,  -0.006929,   0.126850,  -0.093297,  
           0.030424,  -0.075138,  -0.022643,  -0.081606,   0.000736,   0.055134,  -0.103127,  -0.012965,   0.045986,   0.158285,  
           0.069940,   0.020849,   0.292599,  -0.044010,  -0.120393,  -0.149699,   0.232388,   0.117139,   0.016343,  -0.040796,  
           0.011829,   0.084759,   0.162011,   0.066322,   0.044868,   0.128264,   0.109562,  -0.015174,   0.030212,  -0.098606,  
          -0.084338,  -0.067021,   0.071860,  -0.039547,   0.094944,   0.017032,   0.086648,   0.070086,   0.119202,  -0.011143,  
           0.056296,  -0.145747,  -0.115398,  -0.141482,  -0.076988,   0.159335,  -0.073876,   0.047737,   0.056618,   0.156549,  
           0.091768,   0.040072,   0.093083,   0.123188,   0.210338,   0.093716,  -0.065278,  -0.016471,  -0.143746,  -0.056218,  
           0.067907,   0.024411,   0.014667,   0.054664,   0.027240,   0.037395,   0.148910,   0.046584,   0.174769,  -0.061509,  
          -0.020605,  -0.082043,   0.002754,   0.008410,   0.030985,  -0.020369,   0.059451,   0.114927,   0.203865,   0.101520,  
           0.185742,  -0.001844,   0.126970,   0.092805,  -0.015889,  -0.110291,  -0.193649,  -0.212867,   0.071642,   0.114284,  
          -0.033804,  -0.060660,   0.102044,   0.146590,   0.085871,   0.054981,   0.094748,  -0.021436,  -0.217347,  -0.236823,  
           0.008057,   0.005081,  -0.025544,   0.092915,   0.068506,   0.157218,   0.111893,   0.133221,   0.242183,   0.081577,  
           0.174250,   0.143932,  -0.017199,  -0.249187,  -0.122990,  -0.053332,   0.121518,   0.036065,   0.064687,   0.107718,  
          -0.010197,   0.149326,   0.088984,   0.103741,  -0.090979,  -0.196866,  -0.231057,   0.010144,  -0.142603,  -0.076408,  
           0.011713,   0.120284,   0.077699,   0.057741,   0.125616,   0.207757,   0.140409,   0.087824,   0.116663,   0.096764,  
           0.043847,  -0.128611,  -0.035706,  -0.100975,   0.100670,   0.065837,   0.105696,   0.019209,   0.118226,   0.139638,  
           0.147813,   0.205436,  -0.032289,   0.020102,  -0.026018,   0.080537,   0.007915,  -0.077944,  -0.079677,   0.146714,  
           0.059497,   0.146420,   0.159936,   0.053492,   0.042845,   0.088178,   0.196298,   0.012520,  -0.023064,  -0.064298,  
          -0.162579,  -0.066345,   0.061126,   0.026234,  -0.020887,   0.254231,   0.134130,   0.072570,   0.124370,   0.210582,  
           0.028758,   0.045634,   0.076325,   0.201085,   0.138869,  -0.022368,  -0.002640,   0.078466,   0.002894,   0.181599,  
           0.116889,   0.035872,   0.047799,   0.104458,   0.128105,   0.134413,   0.167975,   0.069482,   0.029557,   0.225098,  
          -0.086629,   0.066502,   0.115263,   0.072652,   0.024139,   0.104214,   0.139723,  -0.047782,   0.012481,  -0.037750,  
           0.137880,  -0.064098,   0.106172,  -0.110652,   0.059200,   0.057689,   0.026436,   0.078959,   0.034985,   0.118501,  
           0.111430,   0.152771,   0.045705,   0.181279,   0.072856,  -0.061530,   0.139103,   0.150397,   0.033299,   0.048055,  
           0.031790,   0.110878,   0.055071,   0.180435,  -0.064529,  -0.005523,  -0.197680,  -0.116561,   0.115540,   0.088348,  
           0.007839,  -0.128756,  -0.002156,   0.005769,   0.034187,   0.037488,  -0.033114,   0.144479,   0.090045,   0.136464,  
           0.146051,   0.185236,   0.220437,   0.145478,   0.144907,   0.051350,   0.065684,  -0.040032,   0.029028,  -0.095417,  
           0.099976,   0.156231,   0.009347,  -0.252742,  -0.258170,   0.232947,   0.226236,   0.148636,   0.079775,  -0.081041,  
           0.023277,   0.008483,   0.024156,   0.003510,   0.093030,   0.011136,  -0.101272,   0.023287,   0.189991,   0.011963,  
           0.010874,  -0.014955,   0.122089,   0.023373,  -0.016088,  -0.109378,  -0.194977,  -0.157185,   0.068735,   0.049025,  
          -0.130217,  -0.306529,  -0.337800,   0.159879,   0.205213,   0.010737,  -0.165704,  -0.105667,   0.172331,  -0.021274,  
          -0.081744,   0.089183,   0.061280,   0.012808,  -0.037100,   0.116823,  -0.039711,  -0.037425,  -0.082980,  -0.110955,  
          -0.052369,   0.039288,  -0.211013,  -0.253332,  -0.183850,  -0.149138,   0.031807,  -0.191285,  -0.366427,  -0.456300,  
          -0.235563,   0.087827,   0.008085,  -0.198227,  -0.138777,  -0.068982,   0.022146,  -0.065640,  -0.046486,   0.042828,  
           0.085806,  -0.094979,  -0.198417,  -0.111077,  -0.190772,  -0.173980,  -0.233727,  -0.471257,  -0.238773,  -0.469247,  
          -0.501706,  -0.346003,  -0.412393,  -0.329323,  -0.228902,  -0.461257,  -0.495677,  -0.385342,   0.042869,  -0.139867,  
          -0.205695,   0.041492,  -0.199427,  -0.181899,  -0.256048,  -0.168312,   0.193979,  -0.034143,  -0.103325,  -0.089510,  
          -0.182216,  -0.325632,  -0.321207,  -0.224975,  -0.397298,  -0.633734,  -0.641847,  -0.639553,  -0.387670,  -0.322840,  
          -0.574649,  -0.264485,  -0.215667,  -0.525064,  -0.404267,  -0.181607,  -0.019223,  -0.100660,  -0.150055,   0.094181,  
          -0.009932,  -0.267853,  -0.151596,  -0.003682,   0.022861,  -0.184045,  -0.162295,  -0.028181,  -0.050727,  -0.212738,  
          -0.208340,  -0.055734,  -0.379956,  -0.413003,  -0.474119,  -0.349627,  -0.361217,  -0.586478,  -0.291095,  -0.249570,  
          -0.246178,  -0.336332,  -0.405723,  -0.159835,  -0.174564,   0.045662,  -0.045206,   0.046933,  -0.050722,   0.042510,  
           0.168975,  -0.008793,  -0.316610,  -0.114351,  -0.171298,  -0.085179,  -0.236436,  -0.367668,  -0.313902,  -0.112488,  
          -0.187136,   0.001605,  -0.359493,  -0.247555,  -0.431864,  -0.411811,  -0.282956,  -0.130381,  -0.142505,  -0.124111,  
          -0.143907,  -0.042395,   0.007240,  -0.043867,  -0.056641,  -0.105438,  -0.061937,   0.011299,  -0.221415,  -0.279997,  
          -0.317796,  -0.110418,  -0.211069,  -0.080847,  -0.184989,  -0.263490,  -0.459245,  -0.214072,  -0.202443,  -0.040552,  
          -0.103814,  -0.453419,  -0.294993,  -0.201561,  -0.148494,  -0.115591,  -0.065404,  -0.170837,  -0.187046,  -0.025683,  
          -0.041489,   0.009443,  -0.042270,  -0.012125      }, 
      {    0.075136,  -0.027369,  -0.007920,   0.023536,  -0.020130,  -0.104245,  -0.219880,  -0.119993,  -0.111764,  -0.068218,  
          -0.239144,   0.307116,   0.163213,   0.346541,   0.339633,  -0.005172,   0.110629,   0.054238,   0.084487,  -0.008214,  
           0.181552,   0.168361,   0.063785,  -0.028755,  -0.055076,  -0.063129,   0.093364,   0.026972,   0.155610,   0.209117,  
           0.081935,  -0.044390,  -0.283997,  -0.318883,  -0.319609,  -0.198595,  -0.093339,   0.012397,  -0.171498,  -0.165163,  
           0.047486,  -0.108075,  -0.088559,  -0.151425,  -0.204106,  -0.141584,  -0.035872,  -0.216685,  -0.017009,  -0.008123,  
          -0.178837,  -0.178216,  -0.252273,  -0.144926,  -0.073360,  -0.004591,   0.200517,   0.075553,   0.128234,   0.060582,  
          -0.000733,  -0.082318,   0.076985,   0.052180,   0.178886,   0.213978,  -0.020798,   0.181811,   0.191802,   0.079518,  
           0.099115,  -0.019726,  -0.104916,   0.087496,   0.107489,  -0.021857,   0.146001,   0.103350,  -0.072323,  -0.164165,  
          -0.162986,  -0.272130,  -0.294531,  -0.150774,   0.112414,   0.208889,   0.151797,   0.288080,   0.154951,  -0.027496,  
           0.019791,   0.149968,   0.058381,   0.047501,   0.007040,  -0.015977,  -0.048321,  -0.045882,   0.028207,   0.036685,  
          -0.069292,  -0.072718,   0.033474,  -0.028054,   0.025423,  -0.003000,   0.015796,  -0.019488,   0.040998,  -0.112426,  
          -0.244381,  -0.383921,   0.071935,   0.085733,   0.097122,   0.149815,   0.157345,   0.041718,   0.044789,   0.099707,  
           0.084074,   0.150039,   0.099794,  -0.035052,  -0.023535,   0.057271,   0.078394,  -0.002206,  -0.039634,  -0.011437,  
           0.062748,   0.057949,   0.049645,  -0.070995,  -0.038353,   0.012732,  -0.065774,  -0.071576,  -0.085501,  -0.345769,  
          -0.004735,  -0.009653,   0.153119,   0.238017,  -0.007124,   0.042421,   0.004551,  -0.046700,   0.007936,   0.114089,  
           0.152596,   0.155729,   0.051866,   0.054490,  -0.013973,   0.005419,  -0.081687,  -0.007518,   0.022498,   0.045865,  
          -0.014979,   0.109588,   0.029992,   0.010775,   0.089627,  -0.042631,  -0.124186,  -0.226882,  -0.037040,  -0.136807,  
           0.024359,   0.117938,  -0.012574,  -0.174653,  -0.020806,  -0.087604,  -0.053199,  -0.118988,   0.002805,   0.139428,  
           0.066477,  -0.084024,  -0.023753,  -0.170579,  -0.010840,  -0.040740,   0.016100,  -0.007629,   0.073451,   0.072641,  
           0.168427,   0.008020,   0.096420,  -0.037939,  -0.110728,  -0.414711,  -0.064466,  -0.163044,   0.178864,   0.043461,  
          -0.102911,   0.020698,  -0.200199,  -0.133569,  -0.224159,  -0.017076,  -0.023397,   0.085645,   0.104241,  -0.012843,  
           0.144665,  -0.076727,  -0.002586,  -0.093794,   0.020249,  -0.048827,  -0.009326,   0.095547,   0.020999,   0.090207,  
           0.017016,  -0.126564,  -0.124388,  -0.303831,  -0.030969,   0.012813,  -0.016551,   0.097058,  -0.049333,   0.158879,  
          -0.163525,  -0.168707,  -0.121139,  -0.068465,  -0.017503,  -0.090380,   0.004792,   0.068771,  -0.003156,   0.089660,  
          -0.031532,  -0.094506,   0.063197,   0.051322,   0.095618,   0.138041,   0.115389,   0.058674,  -0.017874,  -0.007844,  
          -0.121142,  -0.316952,  -0.093616,  -0.138063,   0.235420,   0.027711,  -0.049428,   0.069877,   0.023299,  -0.076794,  
           0.056635,   0.053885,  -0.073029,  -0.071895,   0.004262,   0.022910,   0.081903,   0.076154,   0.048495,  -0.045582,  
           0.061923,   0.029358,   0.047126,   0.038991,   0.018655,   0.204269,   0.025618,  -0.015264,  -0.203817,  -0.208907,  
          -0.031993,  -0.150708,   0.129970,  -0.168540,  -0.113331,   0.041090,  -0.070179,  -0.181024,  -0.048312,  -0.017369,  
          -0.185068,  -0.163564,  -0.007476,   0.141298,   0.191027,   0.041386,   0.033016,   0.032486,  -0.003178,   0.088564,  
           0.115083,   0.000115,   0.083100,   0.038387,  -0.081305,   0.010934,  -0.046701,  -0.009818,  -0.093483,  -0.046733,  
           0.096438,   0.031694,  -0.121626,   0.094560,  -0.099123,  -0.207803,  -0.130989,   0.057151,  -0.192094,  -0.144344,  
          -0.066311,   0.180188,   0.119860,   0.123409,   0.024057,  -0.014828,  -0.122979,   0.060177,   0.157963,   0.138771,  
          -0.061386,  -0.054682,  -0.036245,   0.038023,  -0.078708,   0.002562,  -0.040903,   0.061429,   0.107350,   0.067297,  
           0.000616,   0.029337,   0.014965,  -0.059470,  -0.050633,  -0.011613,  -0.129688,  -0.115848,   0.086865,   0.148579,  
           0.154134,   0.130169,   0.074698,   0.102187,   0.010449,   0.007805,   0.094233,   0.140024,  -0.046208,  -0.022561,  
          -0.020222,  -0.027642,  -0.019178,  -0.060633,   0.166265,   0.092793,   0.216347,   0.181878,   0.109675,   0.021422,  
           0.067114,  -0.070850,  -0.103344,  -0.092096,  -0.000695,  -0.206189,   0.016737,   0.164301,   0.237330,   0.122574,  
           0.039744,   0.112602,  -0.050642,   0.000609,  -0.063527,  -0.014370,   0.018570,  -0.027856,   0.049628,  -0.008761,  
           0.000768,   0.090275,   0.127711,   0.189170,   0.293039,   0.358509,   0.038008,   0.009515,  -0.020221,   0.032242,  
          -0.061938,  -0.050453,   0.061517,  -0.083105,   0.004272,   0.151663,   0.204630,   0.080303,  -0.078615,  -0.102390,  
           0.031545,  -0.028159,   0.108104,   0.050110,  -0.027665,  -0.026736,   0.118249,   0.251602,   0.203053,   0.249696,  
           0.309850,   0.184609,   0.144012,   0.005492,  -0.051442,  -0.219832,  -0.222247,   0.006671,  -0.114616,  -0.003134,  
           0.031523,  -0.090076,   0.112439,   0.291950,   0.221703,  -0.026404,  -0.026326,  -0.060349,  -0.052162,  -0.058863,  
          -0.129266,  -0.200687,  -0.138954,  -0.041728,  -0.150701,  -0.096039,   0.026334,   0.037073,   0.249646,   0.156858,  
           0.204759,   0.275820,  -0.206630,  -0.239545,  -0.153500,  -0.004471,  -0.133882,  -0.168199,  -0.005230,   0.073504,  
           0.060236,   0.107205,   0.076741,   0.027134,  -0.098612,  -0.181828,   0.004270,  -0.106828,  -0.007782,  -0.007780,  
          -0.102507,   0.001867,  -0.073305,   0.023199,   0.075549,  -0.120751,   0.161705,   0.203497,  -0.148084,  -0.332435,  
          -0.155785,  -0.178442,  -0.188696,  -0.241743,  -0.194187,  -0.225602,  -0.104083,  -0.062827,  -0.043397,   0.092154,  
           0.048298,   0.051909,  -0.130781,  -0.110700,  -0.024826,   0.087853,   0.061036,   0.126461,   0.018485,  -0.031846,  
          -0.012533,  -0.026702,  -0.054918,   0.020261,   0.145588,   0.191046,  -0.154438,  -0.364401,  -0.394562,  -0.064074,  
          -0.223795,  -0.064782,  -0.161588,  -0.010778,  -0.071785,  -0.061740,  -0.133115,   0.140633,  -0.135984,  -0.116386,  
          -0.103471,  -0.012058,  -0.028398,   0.075003,  -0.125045,  -0.022451,  -0.080582,  -0.013621,  -0.030841,   0.042559,  
           0.140591,   0.111137,   0.217693,  -0.018246,  -0.158600,  -0.231611,  -0.115957,  -0.017924,  -0.078150,   0.032965,  
           0.037043,  -0.029202,   0.044701,   0.048130,  -0.080601,   0.036089,  -0.078225,  -0.093402,  -0.052231,   0.025841,  
           0.134032,   0.215346,   0.151391,  -0.048846,   0.071137,   0.067257,   0.040238,   0.215142,   0.161308,   0.158111,  
          -0.233098,  -0.166900,  -0.004811,  -0.156467,  -0.039527,   0.063478,  -0.097104,  -0.072771,   0.048791,  -0.093556,  
          -0.062210,  -0.048088,   0.056179,  -0.057528,  -0.100094,  -0.041018,   0.123291,   0.180261,   0.261989,   0.311585,  
           0.221747,   0.119310,  -0.056248,  -0.005062,   0.025209,   0.055092,   0.126148,   0.086512,   0.088873,  -0.025107,  
           0.049895,   0.043181,   0.103295,   0.109328,   0.021511,   0.107334,   0.027874,   0.074808,   0.168388,   0.011922,  
          -0.018165,  -0.044375,  -0.121710,   0.071656,   0.022070,   0.121690,   0.042421,   0.047911,   0.069276,   0.032097,  
           0.003982,  -0.101751,  -0.037516,   0.120941,   0.142444,   0.163314,  -0.128754,  -0.140089,   0.052656,   0.099038,  
           0.138897,   0.246665,   0.168826,   0.117333,   0.129639,   0.019913,   0.036526,   0.032075,  -0.159613,  -0.000278,  
           0.112069,   0.152323,   0.159510,  -0.009692,  -0.000673,   0.107284,   0.188866,   0.224631,   0.104505,  -0.000395,  
          -0.275398,  -0.020340,   0.162060,   0.218843,   0.005492,   0.015972,  -0.184668,  -0.005177,  -0.042454,   0.059479,  
           0.025048,   0.028899,   0.051522,   0.063915,  -0.067013,  -0.048408,   0.024692,   0.021740,   0.071128,   0.019494,  
           0.051169,   0.163668,   0.079910,   0.016645,   0.150528,   0.140988,   0.205145,  -0.012019,  -0.303682,  -0.275261,  
           0.137922,   0.304098,  -0.136680,  -0.271281,  -0.085896,  -0.098488,  -0.014984,  -0.060845,  -0.198258,   0.052944,  
           0.059098,  -0.038764,  -0.096246,  -0.096845,  -0.054844,  -0.010626,   0.045011,  -0.040579,  -0.029037,  -0.022258,  
           0.160860,   0.089441,  -0.053793,  -0.010064,   0.029450,   0.113647,  -0.247449,  -0.211009,  -0.001424,   0.253631,  
          -0.008582,  -0.155767,  -0.178143,  -0.000928,   0.129398,   0.077468,   0.260544,   0.024265,  -0.033295,  -0.025786,  
           0.121572,   0.094899,  -0.024567,  -0.000681,   0.145420,   0.032685,  -0.023029,  -0.057632,  -0.125183,   0.092965,  
          -0.244412,  -0.196550,  -0.065104,  -0.061060,  -0.115692,  -0.052023,   0.029978,   0.023365,  -0.094017,  -0.098658,  
          -0.347605,  -0.331306,  -0.220558,   0.018837,   0.101067,  -0.160119,  -0.034999,  -0.051713,  -0.141221,  -0.090843,  
          -0.356713,  -0.075370,  -0.007074,  -0.069341,   0.249304,   0.009438,  -0.226777,  -0.165097,  -0.114416,  -0.262400,  
          -0.206530,  -0.067760,  -0.008593,  -0.172764,  -0.154979,   0.016162,   0.001293,  -0.084668,  -0.208173,  -0.113752,  
          -0.013952,  -0.032366,   0.095928,   0.248882,  -0.216823,  -0.467510,   0.274931,   0.273745,  -0.036953,  -0.365972,  
          -0.362478,  -0.522566,  -0.190322,  -0.074822,  -0.295305,  -0.428403,  -0.302775,  -0.318589,  -0.170700,  -0.166779,  
          -0.051131,  -0.119249,  -0.161675,  -0.018421,   0.001172,   0.036779,  -0.039208,  -0.031149,  -0.015306,   0.026123,  -0.139392,  -0.209760,  -0.269853,  -0.262068,  
           0.077972,   0.093928,   0.218581,   0.333190,   0.084175,   0.261484,   0.021222,  -0.036724,  -0.031098,   0.200388,  
           0.240788,  -0.110083,  -0.078257,  -0.083922,  -0.093150,  -0.051454,  -0.056594,   0.022407,   0.145114,   0.106158,  
           0.105125,  -0.173387,  -0.300719,  -0.301242,  -0.308334,  -0.244548,  -0.248604,  -0.132420,  -0.072046,  -0.032475,  
           0.002702,  -0.027606,  -0.136339,  -0.020146,  -0.020273,  -0.008703,  -0.059282,   0.170774,   0.025402,  -0.091884,  
          -0.188537,  -0.155881,  -0.063235,  -0.154291,  -0.007608,  -0.051844,  -0.007805,   0.099608,   0.144232,  -0.012091,  
          -0.044195,   0.049809,  -0.054327,  -0.200849,   0.078557,  -0.010740,   0.025934,  -0.007459,   0.063467,  -0.029772,  
          -0.118928,  -0.164475,  -0.222663,  -0.234647,  -0.111758,  -0.003192,  -0.021796,  -0.148337,   0.019837,  -0.199623,  
          -0.512707,  -0.212108,  -0.146888,  -0.100259,   0.040960,   0.103191,   0.282053,   0.107245,   0.130597,   0.064429,  
           0.018264,   0.060331,   0.039932,   0.085331,   0.023668,   0.028032,   0.122991,  -0.044205,   0.046686,  -0.021601,  
           0.104973,  -0.139018,   0.103277,  -0.071007,  -0.046418,  -0.070193,   0.080494,  -0.068885,  -0.243527,  -0.255849,  
          -0.243560,  -0.278215,   0.018013,   0.037517,   0.142864,  -0.007859,   0.060901,  -0.037856,  -0.054717,  -0.083356,  
          -0.150429,  -0.096863,   0.010270,  -0.040869,   0.032249,  -0.082703,   0.007924,  -0.035414,  -0.045795,  -0.100538,  
          -0.107703,  -0.130622,   0.023616,   0.033975,  -0.004897,   0.028979,  -0.031599,  -0.139909,  -0.125866,  -0.393280,  
          -0.097431,  -0.067680,   0.079435,   0.093134,   0.224702,  -0.048482,  -0.068425,   0.101803,   0.010092,  -0.020145,  
           0.003124,  -0.044574,  -0.121160,  -0.229451,  -0.163996,  -0.172168,  -0.275114,  -0.177984,  -0.096616,  -0.172449,  
          -0.107259,   0.066903,  -0.187487,  -0.137088,  -0.328309,  -0.151962,   0.024234,  -0.281804,  -0.041280,   0.051053,  
           0.118527,   0.267140,   0.145695,   0.070286,  -0.066403,   0.068315,   0.051057,   0.145115,   0.020127,  -0.071101,  
          -0.077862,  -0.068332,  -0.086816,  -0.151053,  -0.302743,  -0.278069,  -0.159835,  -0.141069,  -0.062256,  -0.196355,  
          -0.167930,  -0.127330,  -0.310758,  -0.200669,  -0.207976,  -0.368881,  -0.031282,  -0.017397,  -0.032347,  -0.092425,  
          -0.087281,  -0.159969,  -0.074159,   0.044985,   0.092189,   0.077327,   0.054140,  -0.068822,  -0.158727,  -0.020259,  
           0.009782,  -0.188170,  -0.275379,  -0.144947,  -0.143993,  -0.132812,  -0.056861,  -0.074600,  -0.047865,  -0.203655,  
          -0.215754,  -0.240542,  -0.377492,  -0.539837,   0.013764,  -0.031273,  -0.147810,  -0.321751,  -0.333370,  -0.325961,  
          -0.192141,  -0.141147,   0.030633,   0.013287,  -0.052219,  -0.043650,  -0.062951,  -0.027729,  -0.216024,  -0.075644,  
          -0.190625,  -0.243518,  -0.292280,  -0.252431,  -0.106352,  -0.087708,   0.069495,  -0.128092,  -0.166385,  -0.246409,  
          -0.274381,  -0.494291,   0.018539,  -0.039548,  -0.169439,  -0.314699,  -0.491464,  -0.318092,  -0.162987,  -0.059384,  
           0.115659,   0.111025,   0.056891,  -0.011519,   0.057352,   0.011725,  -0.040259,  -0.072943,  -0.084698,  -0.287195,  
          -0.265322,  -0.207601,  -0.114087,   0.050659,  -0.047614,  -0.084878,   0.015289,  -0.121139,  -0.066320,  -0.425944,  
           0.138039,  -0.164680,  -0.057889,  -0.313598,  -0.443332,  -0.200335,  -0.039966,   0.057460,   0.034934,   0.275475,  
           0.140623,  -0.103172,   0.019864,   0.093746,   0.008384,  -0.124211,  -0.028305,  -0.235458,  -0.219366,  -0.129169,  
          -0.104718,   0.031319,  -0.074816,   0.013657,   0.096641,  -0.057463,  -0.204015,  -0.107978,   0.157892,  -0.037555,  
           0.000668,  -0.043039,  -0.439052,  -0.179266,   0.035214,  -0.019384,  -0.047912,   0.164886,   0.031127,   0.045633,  
          -0.042380,  -0.017134,   0.029687,  -0.083472,  -0.246418,  -0.238185,  -0.323397,  -0.246628,  -0.027503,   0.148178,  
           0.122256,   0.147963,   0.019817,  -0.075437,  -0.140880,   0.028120,   0.199895,   0.075724,   0.098627,   0.085650,  
          -0.360589,  -0.153677,  -0.123045,  -0.166035,   0.036388,   0.139183,   0.057764,  -0.020151,   0.041248,   0.093377,  
          -0.012126,  -0.134914,  -0.185473,  -0.108962,  -0.390017,  -0.238725,   0.037808,   0.036166,   0.167923,   0.071774,  
          -0.001189,  -0.171152,  -0.051961,   0.097210,   0.068767,  -0.073432,   0.079376,   0.155948,  -0.369552,  -0.096611,  
          -0.016181,  -0.180336,   0.032753,   0.057193,  -0.061133,  -0.004103,   0.024806,   0.134188,  -0.132297,  -0.166607,  
          -0.060107,  -0.281351,  -0.383917,  -0.069762,  -0.002807,  -0.078211,   0.014906,   0.047477,   0.041110,  -0.071708,  
          -0.044931,  -0.191965,   0.074173,   0.084358,   0.147573,   0.187419,  -0.260015,   0.074162,   0.013084,   0.146078,  
           0.237558,   0.147555,   0.032146,  -0.037293,  -0.083038,   0.011665,  -0.066762,  -0.316203,  -0.113437,  -0.077386,  
          -0.313424,  -0.035646,  -0.144051,  -0.143786,  -0.118644,   0.037101,   0.152404,   0.073346,   0.160684,   0.106230,  
           0.172345,   0.131210,   0.250085,   0.184367,  -0.006363,   0.236174,   0.039608,   0.055372,   0.075973,   0.087519,  
           0.001201,  -0.133300,  -0.090500,  -0.110622,  -0.113494,  -0.106909,  -0.162293,  -0.336165,  -0.189182,  -0.180276,  
          -0.160298,  -0.116587,   0.003937,   0.039940,   0.142577,   0.160195,   0.324744,   0.238733,   0.103376,   0.242243,  
           0.155447,   0.186407,  -0.065654,  -0.040127,   0.015728,   0.115820,   0.209296,   0.145178,  -0.023348,  -0.070562,  
          -0.109886,  -0.036487,   0.035430,  -0.005313,  -0.143839,  -0.286148,  -0.287764,  -0.191528,  -0.209428,  -0.161121,  
          -0.003928,   0.083376,   0.192503,   0.265673,   0.362663,   0.077683,   0.032316,   0.222251,  -0.047168,  -0.122466,  
          -0.219829,  -0.225313,   0.043274,   0.105208,   0.186422,   0.063223,   0.004689,  -0.137266,  -0.150390,  -0.103038,  
          -0.107493,  -0.121900,  -0.066499,  -0.293296,  -0.257512,   0.013243,   0.134516,   0.091303,   0.233754,   0.157457,  
           0.006832,   0.106787,   0.094048,  -0.198098,   0.095212,   0.222286,  -0.133983,  -0.216871,  -0.224641,  -0.146496,  
           0.059903,   0.110783,   0.095658,  -0.053798,  -0.110183,  -0.189282,  -0.253922,  -0.025250,  -0.123713,  -0.057768,  
          -0.113662,  -0.123095,  -0.123287,   0.072919,   0.093847,   0.125913,   0.111436,   0.109722,  -0.005076,  -0.000279,  
           0.021172,   0.024115,   0.043895,   0.078484,   0.167120,   0.037453,  -0.023400,   0.036940,   0.202182,   0.240419,  
           0.211593,   0.131654,  -0.106972,  -0.094992,  -0.090108,  -0.138740,  -0.242028,  -0.188952,  -0.304977,  -0.207679,  
          -0.087330,   0.018993,   0.109544,  -0.037779,   0.022647,  -0.005071,  -0.003785,   0.030452,   0.169088,   0.174118,  
          -0.130711,   0.069697,   0.128970,   0.277715,   0.273451,   0.308912,   0.212478,   0.139540,   0.150583,   0.172556,  
           0.106825,   0.101842,  -0.055572,  -0.060234,  -0.160146,  -0.045968,  -0.151130,   0.109805,   0.194442,   0.178870,  
           0.221822,   0.158808,   0.042641,   0.056721,   0.086256,   0.106630,   0.155460,   0.182667,  -0.115116,   0.003995,  
           0.052337,   0.005344,  -0.038860,   0.215586,   0.200177,   0.118066,   0.254936,   0.288196,   0.128028,  -0.041008,  
          -0.094278,  -0.084103,  -0.267153,  -0.160031,  -0.011256,   0.098396,   0.281586,   0.126992,   0.144035,   0.089815,  
           0.034530,   0.046078,   0.076422,   0.088385,   0.165876,   0.111180,  -0.222987,  -0.248435,  -0.085526,   0.110185,  
           0.106439,   0.241195,   0.099839,   0.158202,   0.130008,   0.074149,   0.004937,  -0.211006,  -0.226346,  -0.036641,  
          -0.162777,  -0.122728,   0.132999,   0.209023,   0.121272,   0.217329,   0.178135,   0.085213,   0.077596,  -0.027758,  
          -0.104900,   0.004281,   0.252377,   0.180739,  -0.103484,  -0.069618,  -0.136161,   0.075185,   0.002775,   0.089379,  
           0.104417,   0.174144,   0.034037,  -0.096303,  -0.121668,  -0.105814,  -0.129200,  -0.064684,  -0.118618,  -0.017639,  
           0.053187,   0.098374,   0.095807,   0.097678,   0.048993,   0.043230,  -0.021366,  -0.153995,  -0.233249,   0.150599,  
           0.200377,   0.349918,  -0.007130,  -0.195902,  -0.176652,   0.088249,   0.063501,  -0.009223,  -0.010417,   0.049824,  
           0.087382,  -0.049385,  -0.109428,  -0.108696,  -0.106924,   0.010663,   0.015202,  -0.053526,   0.056956,   0.130878,  
           0.059711,   0.036078,   0.102597,   0.075607,   0.008755,  -0.198199,  -0.332316,  -0.062953,   0.193999,   0.252859,  
          -0.000604,  -0.011662,  -0.101684,  -0.153255,  -0.042022,  -0.095793,  -0.088494,  -0.033507,   0.017748,  -0.145971,  
          -0.107193,  -0.001089,   0.014986,   0.042367,   0.083081,   0.045681,  -0.018900,  -0.106206,   0.023985,   0.009172,  
           0.087020,   0.145762,   0.044242,  -0.231431,  -0.191649,  -0.131398,  -0.021805,   0.158144,  -0.086819,  -0.115514,  
          -0.124158,  -0.216706,  -0.230087,  -0.224911,  -0.205312,  -0.231495,  -0.101535,  -0.111221,  -0.039015,  -0.193477,  
          -0.287895,   0.064692,   0.066294,  -0.160800,  -0.103763,  -0.492610,  -0.290515,  -0.150938,  -0.175373,  -0.135187,  
          -0.034236,  -0.213146,  -0.228411,  -0.164711,  -0.019822,  -0.007599,  -0.067958,  -0.019383,  -0.109149,  -0.095652,  
          -0.127068,  -0.010444,  -0.183505,   0.181919,   0.090819,  -0.086249,   0.076361,   0.002915,   0.002194,   0.230846,  
           0.020182,   0.054321,  -0.051718,  -0.326639,  -0.635966,  -0.816237,  -0.645855,  -0.442529,  -0.331891,  -0.298034,  
          -0.192411,  -0.159719,  -0.139421,  -0.065789,  -0.050380,  -0.021148,  -0.102765,   0.121786,  -0.059419,  -0.016311,  -0.227488,  -0.187802,  -0.153639,   0.030501,  
          -0.118335,  -0.107751,   0.267683,   0.315549,   0.121538,  -0.035103,   0.008410,  -0.041692,   0.286287,   0.008783,  
           0.201404,   0.180425,  -0.009272,  -0.047980,  -0.019771,   0.003911,  -0.058505,   0.042119,   0.038553,   0.107690,  
           0.075601,  -0.150912,  -0.331592,  -0.122802,  -0.343708,  -0.331788,  -0.098955,   0.005847,  -0.116152,   0.045471,  
           0.135751,   0.172038,   0.054621,  -0.049534,  -0.086189,   0.022487,   0.107932,   0.113262,  -0.048808,  -0.325363,  
          -0.214453,  -0.267318,  -0.196785,  -0.131115,  -0.086037,   0.022782,   0.045541,   0.092585,   0.150816,  -0.014863,  
           0.081863,  -0.075675,  -0.173112,  -0.008584,   0.075017,   0.057912,   0.038931,  -0.012193,   0.076244,   0.192505,  
           0.072746,   0.141762,  -0.027207,   0.144591,   0.202079,   0.179241,   0.140081,   0.001086,  -0.142570,  -0.130845,  
          -0.026489,  -0.071234,  -0.122499,  -0.077543,   0.162721,   0.133153,   0.139732,   0.115650,   0.178871,  -0.058574,  
          -0.054134,   0.008012,   0.139467,   0.220519,   0.017582,   0.084459,   0.155264,   0.022567,   0.062040,   0.088047,  
           0.032376,   0.008505,   0.177293,   0.284162,   0.024391,  -0.090072,  -0.042320,   0.037764,  -0.112651,  -0.008104,  
          -0.014931,  -0.193478,   0.145116,   0.257250,   0.166508,   0.163518,   0.077213,   0.003976,  -0.106634,  -0.017696,  
           0.130963,   0.249890,   0.105209,   0.065572,   0.195913,   0.082838,   0.130456,   0.125151,   0.020697,   0.056246,  
           0.054680,   0.178137,  -0.005313,   0.018824,   0.107046,  -0.004305,  -0.072989,  -0.072869,  -0.230887,  -0.076711,  
           0.065629,   0.101934,   0.087889,   0.199493,   0.006577,  -0.015864,  -0.169156,  -0.094159,   0.000802,   0.108558,  
           0.159286,   0.094262,   0.115597,   0.076267,   0.138452,   0.106803,   0.002489,   0.013591,   0.061170,   0.083041,  
           0.120104,   0.118444,   0.108381,   0.099114,  -0.012551,  -0.193189,  -0.221200,  -0.100769,  -0.002640,  -0.151663,  
           0.162994,   0.209170,   0.040261,  -0.070173,  -0.068406,  -0.161418,  -0.164239,   0.022868,   0.141983,   0.081388,  
           0.042120,   0.093218,   0.084897,   0.108712,  -0.037746,   0.048708,   0.036427,   0.209565,   0.180528,   0.166969,  
           0.275518,   0.173088,   0.069288,  -0.421456,  -0.303894,  -0.177074,  -0.085165,  -0.034439,   0.166377,   0.213665,  
           0.008679,  -0.083732,  -0.061148,  -0.214351,  -0.100188,  -0.075010,   0.013336,   0.034231,   0.070523,   0.138790,  
           0.021026,  -0.031013,   0.046283,   0.272586,   0.046382,   0.186950,   0.208294,   0.205191,   0.238600,   0.200263,  
          -0.178044,  -0.370909,  -0.292255,  -0.064338,  -0.037805,  -0.085847,   0.080624,   0.048032,  -0.055315,  -0.070288,  
          -0.111428,  -0.155293,  -0.111511,   0.061488,  -0.022625,  -0.042798,  -0.009093,   0.059714,  -0.054524,  -0.046236,  
           0.016850,   0.062376,   0.083779,  -0.013445,   0.131864,   0.240271,   0.196296,   0.042775,  -0.100454,  -0.140595,  
          -0.161114,  -0.031373,  -0.108945,  -0.188378,   0.095120,  -0.021523,  -0.073804,   0.051213,  -0.074414,  -0.158450,  
          -0.204687,   0.031078,  -0.197148,  -0.092960,  -0.030843,  -0.060121,   0.060348,  -0.029064,   0.034743,   0.011765,  
           0.001792,  -0.117186,  -0.116046,   0.139093,   0.066935,  -0.161614,   0.007024,   0.072684,   0.062118,   0.043670,  
          -0.143683,  -0.185323,   0.120701,  -0.064549,  -0.112584,   0.090194,   0.022363,  -0.114805,  -0.177870,  -0.153769,  
          -0.125890,  -0.038697,  -0.022978,   0.045803,   0.009754,   0.113713,  -0.056465,  -0.042075,  -0.051940,  -0.107490,  
          -0.038291,   0.200654,   0.008647,   0.043739,   0.076030,   0.053321,   0.100336,   0.072327,  -0.134211,  -0.122049,  
           0.082637,  -0.036686,   0.003216,   0.050064,   0.072442,  -0.106145,  -0.174808,  -0.028644,  -0.057347,  -0.096211,  
          -0.065315,  -0.023661,   0.031563,   0.149866,   0.067459,  -0.031582,  -0.273630,  -0.033976,   0.076056,   0.086802,  
          -0.003486,  -0.020139,   0.008217,  -0.004691,  -0.000013,   0.048354,  -0.062696,  -0.052027,   0.123273,   0.001572,  
          -0.105867,  -0.044590,  -0.012832,  -0.092151,  -0.023815,   0.083938,   0.013573,   0.016639,  -0.058750,   0.075102,  
           0.060960,   0.127449,   0.029812,  -0.028298,   0.028529,   0.044042,   0.264639,  -0.070966,   0.017872,   0.077325,  
           0.162458,   0.173730,   0.130059,   0.361702,   0.063650,   0.121602,   0.217014,   0.104285,  -0.046123,  -0.004224,  
           0.021618,  -0.147845,   0.025008,   0.010359,  -0.001751,   0.074783,   0.101494,   0.131016,   0.157610,   0.055680,  
           0.139328,   0.025540,   0.112735,   0.219887,   0.177602,  -0.034226,   0.031257,   0.074115,   0.108731,   0.250458,  
           0.280282,   0.171540,   0.082915,   0.242195,   0.324472,   0.183613,  -0.013488,   0.007399,  -0.112217,   0.163027,  
           0.030502,   0.131954,   0.165616,   0.180348,   0.188842,   0.087548,   0.052749,   0.126450,   0.054223,  -0.060800,  
           0.169263,   0.149161,   0.113479,  -0.101878,  -0.193217,  -0.207697,  -0.004728,   0.260632,   0.108217,  -0.097773,  
           0.154928,   0.219058,   0.342465,   0.033642,  -0.051852,  -0.314371,  -0.076164,   0.144894,  -0.021794,  -0.015131,  
           0.127670,   0.192766,   0.179292,   0.072330,   0.167914,   0.085435,   0.002464,  -0.065909,   0.092607,   0.084471,  
          -0.155568,  -0.177826,  -0.231597,  -0.285790,  -0.051064,   0.007734,  -0.159380,  -0.111661,   0.245019,   0.212696,  
           0.322844,  -0.110279,  -0.226249,  -0.280972,   0.030284,   0.000073,  -0.057343,  -0.065976,   0.076412,   0.175187,  
           0.116538,   0.117064,   0.101982,   0.011436,  -0.087192,   0.108282,   0.090249,  -0.006497,  -0.174104,  -0.116982,  
          -0.314387,  -0.189859,  -0.104910,   0.006825,  -0.117942,  -0.003927,   0.280254,   0.114502,  -0.313425,  -0.262774,  
          -0.216967,  -0.193119,  -0.152542,  -0.081229,  -0.125562,  -0.067809,   0.037403,   0.019750,  -0.050417,   0.173160,  
           0.221137,   0.025840,  -0.015183,   0.080518,   0.039292,  -0.186135,  -0.257843,  -0.320742,  -0.250009,   0.037095,  
           0.026662,  -0.063892,   0.004596,   0.068853,   0.275368,  -0.216000,  -0.518783,  -0.395297,  -0.325750,  -0.231702,  
          -0.168259,  -0.045746,  -0.019241,  -0.095184,   0.001273,  -0.072665,  -0.040007,   0.158664,   0.128067,  -0.020837,  
           0.042656,  -0.023538,  -0.052459,  -0.217013,  -0.153586,  -0.077826,  -0.137049,   0.121587,   0.042785,   0.085373,  
           0.056039,  -0.009788,   0.148502,  -0.019478,  -0.179419,  -0.373698,  -0.349509,  -0.073446,   0.113063,   0.035206,  
           0.014269,  -0.072150,  -0.046443,  -0.063736,  -0.022518,   0.094900,   0.055161,   0.014168,  -0.149004,  -0.180914,  
          -0.155140,  -0.116870,  -0.296677,  -0.298762,  -0.073740,  -0.002795,   0.016925,   0.102418,  -0.012407,   0.068171,  
           0.064220,   0.023128,  -0.122671,  -0.187862,  -0.069892,  -0.007676,  -0.010460,   0.006825,  -0.029118,   0.011258,  
          -0.068663,   0.014353,   0.010945,  -0.006894,  -0.145886,  -0.122642,  -0.249224,  -0.332395,  -0.344219,  -0.551023,  
          -0.584200,  -0.503674,  -0.142463,   0.067335,   0.203818,   0.112764,   0.060402,   0.073287,  -0.185829,  -0.063877,  
          -0.041279,   0.003506,   0.105371,   0.108202,   0.083831,   0.031418,   0.027023,   0.047416,   0.039783,  -0.120925,  
          -0.101275,  -0.105731,  -0.032892,  -0.348517,  -0.190198,  -0.232389,  -0.256150,  -0.247123,  -0.127827,  -0.007919,  
           0.037615,   0.147949,   0.111064,   0.194361,   0.142723,   0.148489,  -0.112630,  -0.013573,  -0.062584,  -0.161083,  
           0.130610,   0.082045,   0.069275,   0.024888,   0.202587,   0.128073,   0.058774,  -0.031052,  -0.088785,  -0.055608,  
          -0.113841,  -0.010875,  -0.096146,   0.079971,   0.090366,   0.017719,   0.158853,  -0.150074,   0.125760,   0.152593,  
           0.140340,   0.298566,   0.186260,   0.243593,  -0.181145,  -0.163068,   0.079266,   0.234601,   0.061722,   0.135716,  
           0.036959,   0.149106,   0.247807,   0.106025,   0.037615,   0.061570,  -0.018346,  -0.003926,   0.079213,   0.088518,  
           0.162296,   0.371626,   0.430630,   0.215513,   0.048911,   0.063763,   0.177980,  -0.041935,   0.204079,   0.225232,  
           0.246301,   0.039474,  -0.182809,  -0.260425,  -0.005620,   0.106305,   0.039771,  -0.106037,   0.090668,   0.194898,  
           0.138765,   0.013385,  -0.011069,   0.033400,   0.140707,   0.072698,   0.075797,   0.103269,   0.222403,   0.329948,  
           0.433879,   0.013966,  -0.043973,   0.075033,  -0.010308,  -0.150761,   0.123861,   0.059937,   0.087330,   0.012481,  
           0.052887,  -0.144082,  -0.313262,  -0.125683,  -0.158854,   0.102644,   0.223331,   0.159407,   0.234370,  -0.158630,  
           0.018522,   0.087998,   0.062207,   0.061050,   0.053699,   0.108601,  -0.010439,   0.415045,   0.184435,  -0.214570,  
           0.096827,  -0.104352,  -0.313961,  -0.203261,   0.194158,   0.075757,  -0.032114,  -0.025340,  -0.014917,  -0.099643,  
          -0.356746,  -0.310671,  -0.071361,   0.202955,   0.131446,   0.126095,  -0.112334,  -0.283818,   0.127501,   0.011608,  
          -0.118356,  -0.006942,  -0.060572,   0.046948,   0.011780,   0.103119,   0.094986,  -0.006723,  -0.212843,  -0.193480,  
          -0.124448,  -0.000240,   0.038838,   0.019928,   0.021227,  -0.075151,   0.029411,  -0.053819,  -0.038719,  -0.004224,  
          -0.074634,  -0.090783,   0.245089,   0.128331,  -0.450447,  -0.121997,   0.277927,  -0.075495,  -0.213131,  -0.237721,  
          -0.269529,  -0.390188,  -0.501398,  -0.346510,  -0.207045,  -0.044864,  -0.094670,  -0.201548,  -0.084535,   0.008451,  
           0.113105,   0.017881,   0.026303,  -0.093834      }, 
      {    0.055105,  -0.020637,   0.023929,   0.077685,   0.065146,  -0.057842,   0.136606,   0.277015,   0.120236,   0.138847,  
           0.180616,   0.127849,  -0.018986,  -0.153378,  -0.099475,   0.150212,   0.133496,   0.014032,   0.053972,  -0.006002,  
          -0.272309,  -0.206285,   0.008166,   0.006332,   0.031783,   0.033315,   0.134542,   0.140330,   0.056288,  -0.021012,  
          -0.187885,  -0.048805,  -0.045913,  -0.213706,  -0.222790,   0.071573,   0.020450,   0.065023,   0.197586,   0.289260,  
           0.079817,   0.052865,   0.109096,   0.016647,   0.177992,   0.126845,  -0.124755,  -0.072058,  -0.206312,  -0.442433,  
          -0.112905,   0.147713,   0.032729,   0.050475,   0.115489,   0.061189,  -0.118244,  -0.265576,  -0.245516,  -0.119575,  
           0.065586,   0.196310,  -0.089038,   0.128109,   0.132226,   0.108787,   0.220392,   0.162040,   0.003959,   0.019655,  
           0.083295,  -0.017902,   0.071171,   0.034708,   0.033605,   0.065735,  -0.075132,  -0.096369,  -0.157733,   0.032863,  
           0.062481,  -0.099247,  -0.018245,  -0.025411,  -0.048845,   0.034995,  -0.008807,  -0.219132,  -0.086684,   0.011021,  
          -0.041004,   0.003445,  -0.005097,   0.154222,   0.042941,   0.044547,   0.079126,   0.000319,  -0.011097,   0.027631,  
           0.074573,   0.117673,   0.014719,   0.069913,   0.031613,  -0.025824,   0.017378,   0.031996,   0.070349,  -0.062733,  
          -0.084582,  -0.076909,  -0.206013,  -0.117705,   0.051581,  -0.145957,  -0.170682,   0.115230,  -0.084071,  -0.091054,  
           0.017190,   0.100781,   0.193933,  -0.036671,   0.042413,   0.042435,  -0.040538,   0.020574,   0.035286,   0.082801,  
          -0.045411,   0.030365,   0.017968,  -0.054352,   0.205874,   0.084358,   0.010948,   0.115511,  -0.065538,   0.014800,  
          -0.169667,  -0.013979,   0.103207,  -0.108604,  -0.194014,  -0.031767,  -0.013436,  -0.113268,  -0.025501,   0.015564,  
          -0.034076,   0.104751,   0.038004,  -0.003759,  -0.039628,  -0.010253,  -0.032995,   0.064372,  -0.105881,  -0.038646,  
          -0.021950,   0.151660,   0.200142,   0.089174,   0.043553,  -0.009530,   0.028751,   0.212868,  -0.225789,  -0.056254,  
           0.060385,   0.024838,  -0.259617,   0.023951,  -0.079706,  -0.052485,  -0.018521,   0.054352,  -0.014994,  -0.042895,  
          -0.024975,   0.118918,  -0.050175,   0.030961,   0.014593,  -0.095082,   0.014352,   0.037390,   0.040750,   0.047238,  
           0.188461,   0.140559,   0.151758,  -0.238633,  -0.000097,   0.209249,  -0.123077,   0.075428,  -0.032626,   0.028511,  
           0.007565,  -0.024359,   0.001854,  -0.046892,  -0.061854,  -0.006245,   0.005368,   0.094371,  -0.106506,   0.147314,  
           0.088148,   0.050620,   0.091454,  -0.049583,  -0.067220,   0.060883,  -0.036642,   0.076897,   0.080386,   0.137586,  
           0.083414,  -0.033011,  -0.072816,   0.061605,  -0.181050,   0.093775,   0.077320,  -0.117926,  -0.016547,  -0.053019,  
          -0.110614,  -0.212437,  -0.160477,  -0.055859,  -0.067598,   0.033303,   0.061658,   0.073584,   0.026058,   0.075364,  
           0.038856,  -0.006487,  -0.099670,  -0.024965,   0.018173,  -0.055785,   0.053685,   0.120134,  -0.080100,  -0.085126,  
          -0.223383,  -0.171797,  -0.097135,   0.019805,  -0.050332,  -0.078584,  -0.070422,  -0.047072,  -0.175097,  -0.071429,  
          -0.086989,  -0.086931,  -0.063102,  -0.099536,   0.040694,  -0.013345,   0.123494,   0.047314,   0.079638,   0.062360,  
          -0.071045,  -0.117735,   0.032431,  -0.035394,  -0.039388,   0.051624,   0.063922,  -0.082567,  -0.298113,  -0.308790,  
          -0.218149,   0.125904,  -0.169721,  -0.024824,   0.047440,  -0.128595,  -0.160974,  -0.163944,  -0.159040,  -0.148582,  
          -0.138908,  -0.078724,  -0.074338,  -0.070777,  -0.057665,   0.019699,   0.044111,  -0.006934,   0.003629,   0.001633,  
           0.024174,  -0.105179,  -0.115397,   0.037288,   0.030495,  -0.003215,  -0.185676,  -0.242020,  -0.405672,  -0.050458,  
          -0.139281,  -0.189438,  -0.060450,  -0.100475,  -0.184596,  -0.243565,  -0.260120,  -0.251404,  -0.176046,  -0.179898,  
          -0.188774,  -0.091068,  -0.259022,  -0.055853,  -0.044300,  -0.030956,  -0.017691,  -0.012973,   0.012113,  -0.049679,  
          -0.107842,  -0.064593,  -0.062199,   0.006595,  -0.148042,  -0.043550,  -0.300892,   0.021309,   0.016727,  -0.114912,  
          -0.017276,  -0.154808,  -0.184384,  -0.282980,  -0.336922,  -0.229327,  -0.225140,  -0.260797,  -0.269667,  -0.096715,  
          -0.141811,  -0.090894,  -0.146760,  -0.053654,  -0.039914,   0.074080,   0.025116,  -0.104011,  -0.052357,  -0.070878,  
          -0.018450,  -0.042501,   0.065925,  -0.009844,  -0.210558,  -0.065714,  -0.010994,  -0.158600,  -0.107161,  -0.105216,  
          -0.164706,  -0.301037,  -0.300935,  -0.008380,  -0.126307,  -0.052842,  -0.159272,  -0.054901,  -0.032663,  -0.104129,  
          -0.064127,  -0.178528,   0.099637,  -0.010686,  -0.054684,  -0.032976,  -0.037372,  -0.093786,  -0.045603,  -0.162971,  
           0.053055,   0.009800,  -0.135450,  -0.149857,   0.073777,  -0.106559,  -0.087945,   0.033327,  -0.118803,  -0.087769,  
          -0.057640,  -0.148428,  -0.125183,   0.026280,  -0.041884,  -0.017936,  -0.015365,  -0.054642,  -0.065319,  -0.093504,  
          -0.007071,  -0.008067,  -0.035409,  -0.144693,   0.038231,  -0.092485,  -0.072531,   0.009066,   0.108936,   0.154687,  
          -0.117207,   0.156975,  -0.014997,  -0.012602,   0.096244,   0.049786,   0.046065,  -0.039148,  -0.013679,   0.126629,  
          -0.017267,   0.050227,  -0.008750,   0.058873,   0.004748,   0.046886,  -0.070577,  -0.164544,  -0.116336,  -0.029487,  
          -0.056500,   0.021279,  -0.111989,  -0.069942,  -0.114195,  -0.027869,   0.136857,   0.077568,  -0.076585,   0.127552,  
           0.045283,   0.062941,  -0.002236,   0.078093,   0.011347,   0.028396,   0.043990,   0.075470,   0.032721,   0.177973,  
           0.129490,   0.125456,   0.071517,   0.030150,  -0.088425,  -0.225761,  -0.113794,  -0.067329,  -0.117046,   0.086402,  
           0.089855,   0.008069,   0.038865,  -0.045311,   0.001516,   0.159155,   0.069939,   0.107482,   0.150031,   0.084735,  
           0.055167,   0.017284,   0.073529,  -0.094582,   0.085768,   0.017465,   0.036406,   0.156855,   0.056149,   0.054655,  
           0.021840,  -0.042457,  -0.180207,  -0.111228,  -0.138300,  -0.121468,   0.012538,   0.007321,   0.013320,  -0.051124,  
          -0.127149,  -0.121323,   0.021739,   0.141425,   0.024568,   0.140175,   0.023414,   0.086151,   0.153352,   0.163381,  
           0.192282,   0.135233,   0.048617,  -0.017567,  -0.048562,  -0.005731,  -0.080870,  -0.010070,  -0.075300,  -0.076304,  
          -0.058720,  -0.097933,  -0.081082,  -0.052777,  -0.001082,  -0.016289,  -0.038712,  -0.082834,  -0.021471,  -0.043451,  
          -0.052149,   0.002836,   0.045813,   0.024612,   0.015886,   0.025637,  -0.025612,  -0.006556,   0.077421,   0.085173,  
           0.056643,   0.062148,   0.068079,   0.016804,  -0.020044,  -0.044783,   0.008990,  -0.076941,  -0.123323,  -0.042678,  
          -0.144009,  -0.062960,   0.009299,   0.028329,  -0.117350,  -0.019973,  -0.002486,  -0.241260,  -0.068298,   0.125780,  
           0.172075,   0.120944,   0.036030,   0.164562,   0.031257,   0.040748,   0.015396,   0.018079,   0.088110,   0.074360,  
           0.021589,  -0.022681,  -0.031157,   0.008113,   0.009269,  -0.024367,  -0.053365,   0.050965,  -0.016190,   0.043274,  
          -0.071626,  -0.003828,  -0.132098,  -0.092136,   0.014240,  -0.059901,  -0.049041,   0.196860,   0.100570,   0.061566,  
           0.127490,   0.023079,   0.103039,   0.051641,   0.032848,   0.100502,   0.109257,   0.030116,   0.014455,   0.008661,  
          -0.043018,  -0.051839,  -0.009749,  -0.054766,   0.099789,   0.171083,   0.231062,   0.198275,   0.178420,   0.119109,  
          -0.031506,  -0.017784,   0.008851,  -0.003843,   0.027025,   0.001950,   0.237825,   0.092333,  -0.013490,   0.022797,  
           0.126173,   0.145438,   0.017130,   0.027753,   0.062808,   0.021047,  -0.086862,  -0.035770,  -0.048277,   0.031113,  
           0.089021,   0.054671,   0.040761,   0.073844,   0.073763,   0.147638,   0.033440,   0.024505,   0.035738,   0.008955,  
           0.111484,   0.095889,   0.050535,  -0.025509,   0.121271,   0.178242,  -0.036095,   0.014027,  -0.060393,   0.024833,  
          -0.002563,   0.029528,  -0.042342,  -0.074302,  -0.096255,  -0.058482,  -0.091927,  -0.113262,  -0.103999,   0.012318,  
           0.064042,   0.140797,   0.043087,   0.139922,   0.161556,   0.114574,   0.143908,  -0.032165,   0.006550,   0.038712,  
           0.224064,  -0.110063,   0.174486,  -0.110060,  -0.109866,  -0.166798,  -0.071193,  -0.228987,  -0.194747,  -0.211513,  
          -0.162164,  -0.186751,  -0.041867,  -0.180395,  -0.048628,  -0.081449,  -0.096751,  -0.048132,   0.000232,   0.166589,  
           0.117473,   0.197076,   0.032880,   0.111771,   0.183606,   0.142429,  -0.043762,   0.073842,   0.374167,  -0.003832,  
          -0.000297,  -0.095753,  -0.228220,  -0.144391,  -0.024281,  -0.010217,  -0.165437,  -0.259390,  -0.225225,  -0.190108,  
          -0.163994,  -0.363319,  -0.257060,  -0.027098,  -0.042938,  -0.049935,   0.037262,   0.117223,   0.098073,   0.187501,  
           0.119654,  -0.025252,  -0.014397,   0.239322,  -0.125685,  -0.086111,   0.235619,   0.019389,  -0.071373,  -0.186644,  
          -0.353025,  -0.316458,  -0.385720,  -0.071751,  -0.447442,  -0.311938,  -0.231840,  -0.250136,  -0.191383,  -0.457027,  
          -0.545499,  -0.280769,  -0.399803,  -0.244616,  -0.057130,  -0.130759,  -0.163317,   0.008174,   0.159690,  -0.212889,  
          -0.017716,   0.236931,  -0.083411,  -0.276205,   0.144041,   0.084152,   0.043565,  -0.192271,  -0.225450,  -0.581464,  
          -0.048134,   0.086419,  -0.252196,  -0.732648,  -0.847123,  -0.367674,  -0.397787,  -0.453145,  -0.241124,   0.083606,  
          -0.033363,  -0.342808,  -0.495164,  -0.333126,  -0.304979,  -0.145225,  -0.180781,  -0.312028,  -0.220062,  -0.005129,  
          -0.036410,  -0.016203,  -0.058369,  -0.097496,  -0.030043,  -0.028797,  -0.106799,   0.040798,   0.011054,  -0.042343,   0.051120,   0.156673,   0.245040,   0.401239,  
           0.395838,   0.088470,  -0.062174,  -0.072841,   0.033732,   0.087037,   0.094102,   0.029944,  -0.030102,  -0.347456,  
          -0.280697,  -0.021702,   0.007072,   0.189289,   0.162613,  -0.039122,   0.040273,  -0.014619,   0.016200,  -0.093235,  
          -0.125985,  -0.190763,  -0.046824,  -0.071784,  -0.119556,   0.010318,   0.121788,   0.238041,   0.099580,   0.061438,  
          -0.026555,   0.073358,   0.075403,   0.031000,   0.164839,  -0.015876,  -0.044520,  -0.348627,  -0.356790,  -0.007970,  
           0.226224,   0.093619,   0.117094,   0.073867,   0.050911,   0.091019,  -0.028391,  -0.123135,  -0.118615,  -0.121046,  
          -0.128630,   0.004902,   0.091725,   0.052799,  -0.018391,  -0.034859,  -0.047257,  -0.039139,  -0.000896,   0.040959,  
           0.057974,   0.121612,   0.219396,   0.178827,   0.031401,  -0.009125,  -0.069751,  -0.075684,  -0.165759,  -0.142985,  
          -0.107669,  -0.076534,   0.218187,  -0.000231,  -0.031148,   0.107299,   0.034680,  -0.144291,  -0.087034,   0.053964,  
           0.086458,   0.099919,   0.080191,   0.016847,   0.111119,   0.027001,   0.063055,   0.124439,   0.151198,   0.014354,  
           0.128578,   0.133932,   0.153916,   0.150487,   0.101413,   0.097054,   0.182028,  -0.091718,  -0.244317,  -0.048144,  
          -0.178396,  -0.209407,   0.000750,   0.032366,  -0.085177,  -0.017282,  -0.074351,  -0.162302,  -0.025147,   0.109441,  
           0.165863,   0.064568,   0.074756,   0.118244,   0.033063,  -0.015560,  -0.017881,   0.012979,   0.068525,  -0.009473,  
           0.020217,  -0.013154,   0.034317,  -0.045070,   0.115937,  -0.023279,  -0.059882,   0.047874,  -0.100020,   0.029710,  
          -0.075926,  -0.030764,  -0.026668,   0.059323,   0.117146,   0.003578,   0.031462,   0.148897,   0.086578,   0.008126,  
           0.097766,   0.041433,   0.086942,   0.094214,  -0.027125,   0.000349,   0.020007,   0.051672,  -0.001164,  -0.026979,  
           0.000683,   0.032164,   0.007429,  -0.212034,  -0.198502,  -0.046614,  -0.163405,   0.214503,  -0.025284,  -0.002160,  
           0.040370,  -0.029078,   0.021556,   0.024259,   0.015857,  -0.008935,   0.037884,   0.002720,   0.069427,   0.026883,  
           0.033455,   0.049133,   0.044109,  -0.091003,   0.063787,  -0.005841,  -0.070545,  -0.029942,  -0.141969,  -0.039194,  
          -0.155731,  -0.223759,  -0.205387,  -0.554654,  -0.081727,   0.321245,  -0.154608,  -0.105813,   0.030378,   0.001496,  
          -0.130028,   0.080095,  -0.004272,  -0.007374,   0.069011,   0.182647,   0.128709,   0.046704,  -0.017390,   0.088925,  
           0.099075,   0.110157,   0.098715,  -0.070100,   0.021907,  -0.024166,  -0.136747,  -0.144511,  -0.203626,  -0.166105,  
          -0.215219,  -0.298884,   0.155109,   0.269015,  -0.097727,  -0.098415,  -0.050271,   0.003480,  -0.008474,   0.022828,  
           0.115575,   0.101049,   0.078699,   0.126325,   0.017599,   0.066423,   0.025401,   0.132463,   0.042859,   0.051123,  
           0.084095,  -0.073373,   0.018855,  -0.007775,  -0.061841,  -0.279347,  -0.084502,   0.032925,  -0.243120,  -0.038280,  
           0.120673,  -0.025255,  -0.174369,  -0.238432,  -0.030327,   0.022937,  -0.017903,   0.162377,  -0.044865,   0.076924,  
           0.062682,   0.056804,   0.051396,   0.060030,   0.019601,   0.026034,  -0.072544,  -0.026907,  -0.127212,   0.014249,  
           0.015356,  -0.036362,  -0.085507,  -0.201828,  -0.202574,  -0.020653,  -0.097466,  -0.077267,  -0.122933,  -0.551072,  
          -0.107715,  -0.118257,   0.003722,   0.153166,   0.152060,   0.210991,   0.075526,   0.113539,  -0.002801,  -0.069460,  
          -0.040359,  -0.114105,  -0.070495,  -0.054209,  -0.072528,  -0.007525,  -0.012939,   0.049374,   0.000817,   0.040746,  
          -0.094249,  -0.110061,  -0.175304,  -0.031773,  -0.070269,  -0.152130,  -0.176790,  -0.328671,  -0.285177,  -0.266365,  
           0.066205,  -0.177187,   0.054872,   0.080417,   0.138024,   0.015398,   0.083162,   0.060492,  -0.014443,   0.046744,  
          -0.032588,  -0.054363,   0.011326,   0.006692,  -0.108200,   0.028576,  -0.101386,  -0.170885,  -0.149164,  -0.015289,  
          -0.084638,  -0.005191,  -0.037156,   0.038230,  -0.055559,   0.005345,  -0.406702,  -0.261282,   0.125085,  -0.223478,  
           0.192440,   0.045220,   0.168194,   0.257971,   0.259291,   0.148671,   0.012281,   0.061525,   0.125613,   0.046187,  
           0.019857,  -0.100145,  -0.088888,  -0.016242,  -0.117501,  -0.133751,  -0.035261,  -0.049074,  -0.085368,  -0.004095,  
           0.176900,   0.147776,   0.031130,  -0.144069,  -0.199951,  -0.200328,   0.023399,  -0.013128,   0.131953,   0.116269,  
           0.092596,   0.164640,   0.160545,   0.162337,   0.151567,   0.042973,   0.054820,   0.069715,   0.064435,  -0.049222,  
          -0.248800,   0.007695,  -0.021029,  -0.128178,  -0.019819,  -0.168236,   0.033350,  -0.028859,   0.161258,   0.150882,  
           0.118227,  -0.116816,  -0.091535,  -0.068812,   0.034843,   0.098137,   0.108392,   0.004150,   0.050717,   0.200254,  
          -0.029901,   0.055528,   0.024262,   0.103092,   0.107274,   0.005982,  -0.025200,  -0.034400,  -0.120932,  -0.014078,  
           0.032202,  -0.138993,  -0.131497,  -0.086266,   0.055662,   0.117893,   0.140650,   0.101124,   0.143372,   0.128785,  
          -0.098750,   0.037176,   0.093559,  -0.002941,  -0.051733,   0.044362,   0.068688,   0.044373,  -0.037549,   0.050260,  
           0.035147,   0.065724,   0.119821,   0.010569,   0.014737,   0.018799,  -0.036404,  -0.092020,  -0.070153,  -0.086708,  
          -0.058856,  -0.017514,   0.120920,   0.160312,   0.089375,   0.240488,   0.118830,   0.083694,  -0.106789,   0.084937,  
           0.086672,   0.063266,   0.052841,   0.038541,   0.047489,   0.018619,  -0.000898,   0.074746,   0.017024,  -0.023551,  
           0.027156,  -0.018794,   0.064829,  -0.044893,  -0.034308,  -0.011983,  -0.066527,  -0.073235,  -0.000374,   0.093665,  
           0.088298,   0.252087,   0.239086,   0.270743,   0.237259,   0.131219,  -0.129486,   0.086975,   0.127865,   0.057406,  
          -0.001054,  -0.055886,  -0.091390,  -0.113504,   0.104506,  -0.071848,  -0.026159,   0.028326,   0.024867,   0.034442,  
           0.053077,   0.043413,   0.063521,  -0.049641,  -0.157668,   0.007783,   0.044013,   0.029882,   0.165491,   0.025455,  
           0.094976,  -0.043648,  -0.059513,   0.154415,  -0.087890,   0.095737,   0.060870,   0.137179,   0.128570,   0.055578,  
           0.020312,   0.041876,   0.024114,  -0.121711,   0.028462,   0.069899,   0.085033,   0.118858,   0.068093,   0.135794,  
           0.011604,  -0.016480,   0.017250,  -0.002030,   0.097174,   0.111757,   0.099043,   0.195029,  -0.029051,  -0.107366,  
          -0.072601,   0.112576,  -0.070693,   0.012656,   0.081312,   0.119506,   0.039484,   0.021658,   0.074298,   0.022364,  
          -0.053934,  -0.006269,  -0.074338,  -0.005545,   0.045081,   0.125353,  -0.026911,   0.008412,   0.062549,   0.038391,  
           0.173309,   0.150974,   0.128667,   0.091454,   0.126671,   0.157564,   0.222080,  -0.008471,  -0.067620,  -0.003640,  
          -0.010666,   0.067103,   0.026608,   0.061102,  -0.011804,   0.050867,   0.011109,  -0.058232,  -0.147146,  -0.047400,  
          -0.007761,   0.028735,  -0.090659,  -0.048971,   0.090923,   0.090035,   0.109798,   0.234222,   0.156929,   0.071900,  
           0.119196,   0.134883,   0.218905,   0.233727,   0.299406,  -0.035008,  -0.021434,   0.019558,   0.073289,   0.033218,  
           0.135930,   0.080893,   0.067972,  -0.012431,  -0.030133,  -0.096896,  -0.222479,  -0.022531,  -0.080859,  -0.077099,  
           0.026952,  -0.018253,  -0.028131,   0.058883,   0.074865,   0.079004,   0.099214,   0.190257,   0.234674,   0.219020,  
           0.121602,   0.153747,   0.181283,  -0.053707,  -0.012549,   0.259101,   0.054217,   0.223504,   0.189241,   0.146582,  
           0.129088,  -0.033311,  -0.021698,   0.050504,  -0.055206,  -0.174950,  -0.121778,   0.067193,  -0.055835,  -0.044890,  
           0.024268,  -0.027565,   0.001853,   0.055882,   0.089012,   0.247276,   0.169003,   0.126282,   0.107028,   0.025039,  
           0.019540,   0.042443,   0.065148,   0.032924,   0.005402,   0.172039,   0.175981,   0.046577,   0.099891,   0.065740,  
           0.066069,   0.001728,   0.049205,  -0.102568,  -0.047800,  -0.050974,  -0.039860,   0.049810,   0.003131,   0.061370,  
           0.041734,   0.080464,   0.170707,   0.182822,   0.159632,   0.076538,  -0.051311,  -0.029929,   0.118635,   0.078542,  
           0.087794,  -0.187223,   0.016579,   0.181482,  -0.021670,  -0.075545,  -0.215111,  -0.119086,  -0.121556,  -0.154627,  
          -0.056515,  -0.096839,   0.037001,  -0.017858,   0.007844,   0.063811,   0.012042,  -0.027422,   0.063122,   0.054768,  
           0.032837,   0.173648,  -0.019750,   0.046643,   0.013871,   0.098180,   0.120485,   0.153239,   0.062902,  -0.136540,  
          -0.040301,  -0.068523,  -0.191360,  -0.276818,  -0.218344,  -0.174960,  -0.060924,  -0.183508,  -0.037980,   0.056435,  
           0.057762,   0.070102,   0.124253,   0.163320,   0.064002,   0.026678,   0.191417,   0.206124,   0.033645,   0.012394,  
           0.078554,  -0.051857,   0.153621,   0.110211,  -0.068296,   0.030953,   0.123707,  -0.039063,  -0.016765,  -0.026245,  
          -0.372317,  -0.334747,  -0.613938,  -0.381575,  -0.405049,  -0.204681,  -0.160870,  -0.024522,   0.004920,   0.059865,  
           0.121790,   0.189383,   0.059037,   0.165876,   0.312507,   0.241155,   0.049651,  -0.006660,  -0.085537,  -0.110853,  
          -0.098742,  -0.080890,  -0.246600,   0.064898,   0.164975,   0.181834,   0.023532,   0.000255,  -0.218207,  -0.243229,  
          -0.529889,   0.062403,  -0.124642,  -0.026171,  -0.059600,  -0.059419,  -0.029672,   0.116925,   0.031857,   0.167093,  
           0.184006,   0.120839,   0.276824,   0.145393,  -0.017459,  -0.055115,  -0.149170,  -0.082886,  -0.017131,   0.023087,  
          -0.190583,  -0.156852,  -0.004667,   0.084920,  -0.108240,  -0.003717,   0.017555,   0.054102,  -0.001170,   0.002663,   0.024479,   0.171641,   0.270845,   0.163328,  
           0.112649,   0.276235,  -0.064399,  -0.017061,   0.135253,   0.332678,   0.295482,   0.081641,  -0.321286,  -0.097661,  
          -0.179423,  -0.228036,   0.031923,   0.058646,   0.044240,   0.119786,   0.135989,  -0.004361,   0.030267,  -0.038839,  
          -0.047085,  -0.135887,   0.010189,  -0.107625,  -0.207965,   0.164879,   0.280449,   0.284403,   0.368408,   0.141079,  
           0.056758,   0.058474,   0.055517,   0.172556,   0.176673,  -0.005772,  -0.120917,  -0.206204,  -0.150553,  -0.285289,  
          -0.069886,   0.164074,   0.127921,   0.025827,  -0.046157,  -0.023295,  -0.047587,  -0.132631,  -0.240664,  -0.063676,  
          -0.158097,   0.016774,  -0.136117,  -0.004832,   0.181486,   0.153069,   0.242974,   0.171722,   0.179294,  -0.082374,  
          -0.036958,  -0.010690,  -0.035043,  -0.080732,  -0.255639,  -0.327652,  -0.145392,   0.022393,   0.152563,   0.120973,  
           0.036642,  -0.166181,  -0.141083,  -0.030849,  -0.114403,  -0.316264,  -0.136372,  -0.169478,  -0.138273,   0.073811,  
           0.082362,   0.001020,   0.139169,   0.021347,   0.171959,   0.095815,   0.092027,   0.041242,  -0.118432,  -0.057332,  
           0.026562,  -0.180940,  -0.214513,  -0.197227,  -0.176430,  -0.038511,  -0.087343,   0.002259,   0.076883,  -0.012315,  
          -0.152675,  -0.120801,  -0.179449,  -0.183904,  -0.058333,  -0.182131,  -0.146809,  -0.082077,  -0.028157,  -0.042931,  
          -0.115433,  -0.095990,  -0.014359,  -0.120363,  -0.067869,  -0.101536,  -0.119700,  -0.133676,  -0.131617,  -0.121959,  
          -0.153951,  -0.073241,  -0.045394,  -0.027328,  -0.009865,  -0.070123,  -0.152472,   0.025749,  -0.143189,   0.079804,  
          -0.285920,  -0.026196,   0.102933,  -0.014248,  -0.174232,  -0.035918,  -0.029087,  -0.071883,  -0.073165,  -0.154600,  
           0.028787,  -0.031375,  -0.235789,  -0.063765,   0.005539,  -0.085344,  -0.018547,  -0.029405,  -0.212905,  -0.235822,  
          -0.166121,  -0.137446,  -0.195572,  -0.182859,  -0.029100,  -0.053755,   0.091683,   0.126505,  -0.191791,  -0.031426,  
           0.157285,   0.076004,  -0.115343,  -0.080172,   0.001353,  -0.068072,  -0.017930,  -0.035574,  -0.026257,  -0.074261,  
           0.002133,  -0.048205,   0.038107,  -0.013124,  -0.051442,  -0.106382,  -0.273243,  -0.295949,  -0.330899,  -0.269794,  
          -0.384060,  -0.218256,  -0.055024,   0.214187,   0.064674,  -0.268336,  -0.204200,  -0.049635,   0.124750,  -0.044055,  
          -0.072876,  -0.055688,  -0.160427,   0.036474,  -0.053333,   0.000066,   0.035851,  -0.066341,  -0.002150,   0.059181,  
           0.002799,  -0.019847,  -0.134077,  -0.127218,  -0.235118,  -0.233181,  -0.094971,  -0.272849,  -0.216974,   0.009816,  
           0.191761,  -0.188056,  -0.289637,  -0.358088,  -0.254313,  -0.032264,  -0.018730,  -0.046049,  -0.134819,  -0.117489,  
           0.000126,   0.087812,   0.121703,   0.089783,   0.079192,  -0.048309,   0.003057,   0.033775,   0.000678,  -0.042988,  
           0.070528,   0.000860,   0.017810,  -0.060713,  -0.015170,  -0.003321,  -0.125924,   0.021374,  -0.053767,   0.008843,  
          -0.241089,  -0.154227,  -0.198538,   0.000814,   0.026374,  -0.104461,  -0.065212,  -0.090291,   0.083607,  -0.105662,  
           0.009095,   0.029676,   0.042044,   0.021168,  -0.014962,  -0.015071,   0.027235,   0.040323,   0.037847,   0.161090,  
           0.059278,   0.024578,   0.038952,   0.038220,   0.023036,  -0.073296,   0.083561,  -0.042160,   0.055877,   0.061232,  
          -0.339557,   0.089754,  -0.133477,  -0.203261,  -0.094711,   0.009218,  -0.087777,  -0.147688,  -0.083128,  -0.023703,  
          -0.112599,  -0.080490,  -0.125574,  -0.141492,  -0.092343,   0.075761,   0.010013,   0.085001,   0.021041,  -0.018867,  
           0.077687,  -0.033518,   0.216628,   0.201690,   0.104640,   0.084651,   0.018881,  -0.048487,  -0.332998,   0.038832,  
          -0.291601,  -0.170104,  -0.017716,  -0.014770,  -0.185777,  -0.174178,  -0.157081,  -0.178997,  -0.159171,  -0.154340,  
          -0.129993,  -0.192347,   0.065992,   0.109932,   0.122024,   0.083640,   0.070531,   0.107387,   0.021316,   0.001554,  
           0.169757,   0.107013,   0.263404,   0.336703,   0.235276,   0.187012,  -0.486522,   0.090938,  -0.301124,  -0.068005,  
          -0.033167,  -0.128537,  -0.224297,  -0.173064,  -0.081358,  -0.149170,  -0.144825,  -0.027498,  -0.131013,  -0.012145,  
          -0.084999,   0.091996,   0.075661,   0.018323,   0.215689,   0.125330,   0.008766,   0.154230,   0.159164,   0.010981,  
           0.264596,   0.215162,   0.106752,   0.269942,  -0.522102,  -0.100636,  -0.106786,  -0.089542,  -0.006615,  -0.000780,  
          -0.086792,  -0.001221,  -0.080982,  -0.040297,  -0.023657,  -0.102680,  -0.007041,   0.054922,  -0.084409,  -0.019160,  
           0.063450,   0.107731,   0.178006,   0.111353,   0.129389,   0.137220,   0.143820,   0.132456,   0.077669,   0.135045,  
           0.271515,   0.114228,  -0.334626,  -0.054013,   0.137203,   0.052235,  -0.023156,  -0.051708,  -0.029571,   0.082901,  
           0.059400,  -0.010725,  -0.021519,  -0.091870,  -0.048716,   0.013005,   0.002952,   0.009257,   0.151809,   0.067302,  
           0.209142,   0.122143,   0.182186,   0.117497,  -0.016770,  -0.186624,   0.088064,   0.298679,   0.298895,   0.298446,  
          -0.113548,   0.041952,   0.001294,  -0.139968,   0.045827,   0.100599,   0.160096,   0.002136,  -0.009913,   0.031509,  
           0.070550,   0.071849,   0.189009,   0.044541,   0.101559,   0.175377,  -0.048274,  -0.025244,  -0.073859,   0.084387,  
           0.038909,  -0.012121,  -0.124851,  -0.038844,   0.055699,   0.125126,  -0.001301,   0.165699,   0.025241,   0.141895,  
           0.089529,   0.048329,  -0.066010,   0.150724,   0.075058,  -0.003469,   0.071261,   0.125888,   0.113025,   0.145484,  
           0.109501,   0.072991,   0.073803,   0.099165,  -0.052152,  -0.038830,   0.018703,  -0.071732,  -0.025789,  -0.088720,  
          -0.017291,  -0.045248,  -0.013353,   0.258207,   0.311777,  -0.008128,   0.056381,   0.222893,   0.131101,   0.073719,  
           0.081698,   0.079969,   0.215675,   0.107915,   0.110941,   0.164496,   0.130278,  -0.018847,   0.031785,   0.131097,  
           0.158837,   0.125145,   0.021792,  -0.045313,  -0.014405,  -0.190327,  -0.025522,  -0.118905,  -0.276855,  -0.224718,  
          -0.064756,   0.286733,   0.198030,   0.106874,   0.153612,   0.099679,  -0.003154,  -0.005497,   0.164362,   0.036005,  
           0.244924,   0.148619,   0.026849,   0.150435,   0.141495,   0.077489,   0.158879,   0.052865,   0.140028,   0.078400,  
          -0.006655,  -0.036944,  -0.027907,  -0.045054,  -0.054498,  -0.117821,  -0.312905,  -0.360349,  -0.114657,   0.297738,  
           0.145935,   0.117261,   0.157679,   0.048978,   0.141174,   0.014472,   0.100652,   0.064428,   0.155970,   0.099610,  
           0.128522,   0.115985,   0.082593,   0.106020,   0.099708,  -0.020077,   0.032349,   0.044615,  -0.009945,  -0.076823,  
          -0.121102,  -0.173832,  -0.146084,  -0.123563,  -0.282576,  -0.092082,   0.035920,   0.167015,   0.100313,  -0.043236,  
           0.027550,   0.095138,   0.201952,   0.111023,   0.057796,   0.146529,   0.177816,   0.076151,   0.142612,   0.068036,  
           0.044765,   0.115247,  -0.005215,   0.029547,  -0.063926,  -0.015799,   0.050137,  -0.073313,  -0.139375,  -0.147085,  
          -0.003180,  -0.207217,  -0.369686,  -0.122723,  -0.044875,   0.002219,   0.022266,  -0.065607,   0.209323,   0.217418,  
           0.152833,   0.137013,   0.070388,   0.119928,   0.158129,   0.139205,   0.080694,   0.151735,   0.017254,  -0.057117,  
           0.001913,   0.019717,  -0.069836,  -0.005042,  -0.018801,  -0.172264,  -0.188500,  -0.080593,  -0.225549,  -0.388950,  
          -0.089301,   0.073737,  -0.120009,  -0.096860,  -0.112946,   0.040405,   0.224544,   0.058376,   0.083650,   0.015777,  
           0.054849,   0.224597,   0.016290,   0.045072,   0.013886,   0.056633,   0.053637,  -0.067321,   0.037763,  -0.062385,  
          -0.083562,  -0.048039,  -0.154612,  -0.043915,  -0.210099,  -0.101975,   0.071957,   0.054864,  -0.079163,  -0.081629,  
          -0.268631,  -0.059251,   0.011893,  -0.056038,   0.263824,   0.109950,  -0.107249,  -0.030672,   0.002665,   0.021987,  
          -0.019988,  -0.000360,   0.115396,   0.020553,  -0.119696,  -0.008191,   0.005943,  -0.176165,  -0.245428,  -0.158117,  
           0.070904,   0.027729,   0.061574,   0.041220,   0.073011,  -0.084001,  -0.203671,  -0.042639,   0.002993,   0.027717,  
           0.019753,  -0.028765,   0.275414,  -0.028246,  -0.217223,  -0.147304,   0.138035,   0.002161,  -0.103156,  -0.076684,  
          -0.044112,  -0.248818,  -0.241334,  -0.047767,  -0.119202,  -0.333654,  -0.216724,  -0.130939,  -0.022262,   0.085597,  
          -0.153230,  -0.061564,   0.081925,  -0.130550,  -0.053248,  -0.011187,   0.079500,   0.079867,   0.109120,   0.094905,  
          -0.079968,  -0.347827,  -0.244105,  -0.215693,  -0.105039,   0.002208,  -0.224067,  -0.138979,  -0.376091,  -0.401985,  
          -0.077286,  -0.330578,  -0.322181,  -0.208033,  -0.293635,  -0.397271,  -0.062212,  -0.289892,  -0.375488,   0.053329,  
          -0.064059,  -0.170983,   0.089551,   0.050283,   0.023708,  -0.052872,  -0.061465,   0.084338,  -0.091676,  -0.318825,  
          -0.174712,  -0.577963,  -0.100753,  -0.013337,  -0.182020,  -0.442297,  -0.435814,  -0.261799,  -0.261109,  -0.351445,  
          -0.116054,  -0.077653,  -0.496328,  -0.459430,  -0.343838,  -0.457212,  -0.080816,   0.038321,   0.008998,  -0.138860,  
           0.103610,   0.092246,  -0.035433,   0.000640,  -0.050212,  -0.015607,   0.009303,  -0.280286,  -0.168707,  -0.563309,  
           0.125765,  -0.029925,  -0.631480,  -0.801597,  -0.490325,  -0.290686,  -0.324737,  -0.247357,   0.086536,   0.056321,  
          -0.126426,  -0.522719,  -0.444991,  -0.258536,  -0.112276,  -0.218244,  -0.127946,  -0.162781,  -0.073598,  -0.103318,  
          -0.053574,  -0.041847,  -0.021291,  -0.026052      }, 
